encog,BasicNetwork,java,3.4.0,1,1589546819365
[BASIC]
[BASIC:PARAMS]
[BASIC:NETWORK]
beginTraining=0
connectionLimit=0
contextTargetOffset=0,0,0
contextTargetSize=0,0,0
endTraining=2
hasContext=f
inputCount=200
layerCounts=235,601,201
layerFeedCounts=235,600,200
layerContextCount=0,0,0
layerIndex=0,235,836
output=0,0,0,0,0,0,0,0,0,0,0,0,0,0,0,0,0,0,0,0,0,0,0,0,0,0,0,0,0,0,0,0,0,0,0,0,0,0,0,0,0,0,0,0,0,0,0,0,0,0,0,0,0,0,0,0,0,0,0,0,0,0,0,0,0,0,0,0,0,0,0,0,0,0,0,0,0,0,0,0,0,0,0,0,0,0,0,0,0,0,0,0,0,0,0,0,0,0,0,0,0,0,0,0,0,0,0,0,0,0,0,0,0,0,0,0,0,0,0,0,0,0,0,0,0,0,0,0,0,0,0,0,0,0,0,0,0,0,0,0,0,0,0,0,0,0,0,0,0,0,0,0,0,0,0,0,0,0,0,0,0,0,0,0,0,0,0,0,0,0,0,0,0,0,0,0,0,0,0,0,0,0,0,0,0,0,0,0,0,0,0,0,0,0,0,0,0,0,0,0,0,0,0,0,0,0,0,0,0,0,0,0,0,0,0,0,0,0,0,0,0,0,0,1,0,0,0,0,0,0,0,0,0,0,0,0,2.2936949216,11.9217663552,0,0.8636100392,5.2932364109,3.6626492436,5.9246420507,0.570649008,0,5.6558800469,2.8486429549,0,0,0,0,0,3.6933799245,0,2.8020986243,0,1.6043954006,4.7415670533,0.0942625085,1.5636579297,6.9173486709,13.5798023943,1.3873735603,8.8383378863,2.3431769512,1.4207219223,0,0,0.4853024524,0,2.5334321693,13.6523786557,6.5482658725,46.3369971967,2.107150552,0,0.7803917862,0,8.2639556945,0,2.9750869191,7.0311153213,0,5.2531839078,0,0,3.8417658527,0,3.7479978515,0,2.5766967894,0,0,11.3643931906,0,0,0,0,5.3985057496,0,0,7.4701947284,0,7.1126304363,0,0,0,0,1.8290623037,0,1.9032230276,0,0,4.9521329322,2.8627669155,5.0400378903,2.8055681177,0,0,8.484779506,0,0,0,1.9596352163,3.5719646483,12.833056964,0,5.3141169789,0,0,0,1.4263505702,0,3.0051688569,9.2627745546,0,0,1.8422049919,1.3494027598,3.3337766931,6.8146130218,7.5149260014,1.6291586481,0,10.734652793,0,0,2.7284151086,0,0,6.2877088531,0,8.1411163484,0,4.4141361731,0,19.5454838065,1.6321275863,0,0,0,9.1439301498,5.4665981173,0,7.3748441177,0.3265411888,0,5.5327568884,0,6.0337262387,0,3.008353294,2.288044108,0,12.0585145775,8.3360395285,0,0,0,5.8084506679,1.7141006712,0,7.35506752,0,12.627006227,1.292676609,0,4.8864026292,6.8806179182,0,0,5.7446347913,1.0892847511,2.2236607665,0.6975872371,2.7362237407,0,0,0,0.4005423525,2.6380901958,0,2.1566698013,10.1633329774,6.0415355629,0,7.4884422375,0,7.153235471,0,0,12.4289637912,0,4.3140537993,0,0,0,0,0,0,0,3.8290829623,0,0,0,8.9597682168,0,0,1.2946450202,7.8427981231,7.8834859112,3.3440534111,1.5820394802,0,0,0,0.092926506,0,0,6.7810621024,0.6923480263,0,2.7577088365,0,2.1357180327,2.6128841645,0,0,0,0,0.3289481322,0,4.2175898534,0,3.3876096447,0,0,0,0,2.8253535152,0,0,1.7723545176,0.9869808204,2.4203228293,5.4793100685,0,9.7943878117,6.3984409293,0.8580233497,9.5467274218,12.5437304644,4.6478242564,11.5044569437,5.4808784293,3.9156547854,3.333204202,0,0,0,2.5534175083,0,0,12.2950579762,0,7.49110971,1.6918235103,0,0.1763401364,0,0,0,0,6.2779989991,5.2820026998,0,0,0,9.1046637939,0,0,0,0,0,1.4283100097,3.1876371425,0,0,0,0,4.0022269904,1.4100845178,2.3935414506,0,0,7.0540885253,5.0609771902,0,7.0973250436,7.2371747329,0.7632858382,7.595334475,0.4982956994,3.3241036141,6.6090811429,14.5007601506,4.2316357189,0,12.007294583,6.8193548435,0,0,0,1.6629365752,0,9.919522044,0,8.0924693324,9.3039617484,0,11.8748208343,0,10.0801872951,5.1142034794,0,0,12.5844947156,0,11.155426248,0.0899893686,0,1.5712336102,23.1927594596,0,7.3644793616,6.2447692415,0,3.9477804597,2.1680133364,4.4168233311,2.2077267944,14.5620292863,1.5053447705,2.9291687996,7.6074390002,3.6811830338,0,0,0,0,5.1222464418,5.284487957,0,3.9433722491,0,0,4.3800931963,0,6.9406551978,7.0629175312,12.6089094096,0,1.2165461241,0,11.2220451582,1.1497831808,16.7273538609,14.2000983339,0,0,4.7470310416,0,2.4645432618,0,2.0390233591,17.3847391989,3.1469674576,0,4.202244012,0,0,7.7352137668,12.4382798187,9.2814528305,11.6663100005,0,0,0,0,5.2161608637,0,5.894662761,1.9535888662,7.5333946105,3.7905346996,2.7367452582,4.4780128603,4.8959078543,0,2.9916558697,0,0.8689446187,1.3146479474,0,0,0,10.5824225632,0,0,0.7427355303,0,0,7.9660787655,0.9389044628,0,0,0,12.5649941284,0.5496693287,4.1718523001,0.2440693312,2.6537492983,0,2.1432725606,8.1797478109,0,2.713379248,5.1661758565,6.9858922222,4.203172184,4.6855157621,8.9416055334,0,0,0,0,0,11.414793487,0,7.3145704309,0.8802733813,0,0,1.8815013775,0,1.8707103811,0,0.3194744731,4.6903104734,3.9198759381,0,0,0,0,0,15.1488418981,0,0,0,0,2.3926578968,0,0,0,5.126730159,8.6050332308,0,6.7779958315,0,0,0,3.1580410187,0,0,1.0245077937,0,0,0,1.4678942803,5.2040744995,4.6767359371,3.0850875285,4.3005898326,1.1227223443,0,0,6.6322370529,7.1507589314,1.7801027097,0.6669255513,4.8384514783,6.8481532744,0.6703694599,0.3205356682,2.2263457117,0,16.5121342714,0,6.6328510066,12.2189588314,11.2870315386,0,4.1341348551,0,6.8079512351,4.7244830947,0,6.6628031977,0,2.1232431515,7.6127227929,0,8.6168905848,0,0,1.0261043203,15.8569625803,4.7390648959,6.5474739598,0,12.4443868497,0,0,4.1381972583,0,0,0,1.5064136654,0,2.1454303362,0,18.6387335738,15.1037974468,4.7380799155,0,0,4.3357259452,8.500970158,0,13.2685387988,6.2155466986,1.0318733318,13.0579204781,0,5.9908683716,0,0,8.8846258296,9.110375298,0,0,4.1534073229,10.3523903077,0,6.5142860768,0,1.7609744253,0,0,0,0,0,0,0,0,8.2574412808,3.4228628546,0,0,0.0031806758,2.081786201,0,6.4203066486,0,2.5296340225,0,5.0391153779,12.6074347005,4.4413801831,15.4971226949,0,0,0,0,0,10.426346655,0,0,9.8508794644,6.4039898097,3.0477371532,1.8761158698,0.0651179451,0,8.2754857098,6.5263464017,0,0.9126777238,18.0129778005,6.3978665697,0,0,0,0,0.4910268644,8.3845210224,0,0,5.8471472922,0,2.078307805,0,0,6.9299735817,0,1,-0.5,-0.5,-0.5,-1,-1,-1,-1,0,-1,-1,-1,-1,-1,-1,-0.5,0,-1,-1,-1,-0.5,-1,-1,-1,-1,-0.5,-1,-0.5,-1,-1,-0.5,-1,-1,-1,-1,-1,-1,-1,-1,-1,-1,-0.5,-1,-1,-1,-1,-1,-1,-1,-0.5,-1,-1,-1,-0.5,-1,-1,-1,-1,-1,-1,-1,-1,-1,-1,-1,-0.5,-0.5,-1,-1,-1,-1,-1,-1,-1,-0.5,-1,-1,0.5,-1,-1,-0.5,-1,-1,-1,-1,-1,-1,-0.5,-1,-1,-1,-1,-1,-1,-1,-0.5,-1,-1,-1,-1,-0.5,0,-1,-1,-1,-1,-1,-0.5,-1,0,-1,-0.5,-0.5,-1,-0.5,-0.5,0,-1,-0.5,0,-1,-1,-1,-1,-1,-1,-1,-1,-1,-0.5,-1,-1,-1,-1,-0.5,-1,-1,-1,-0.5,-1,-1,-1,-1,-1,-1,-1,-0.5,-1,-0.5,-1,-0.5,-1,-1,-0.5,0,0,-1,-1,0,-1,-1,-1,1,-1,-1,0,-1,-0.5,-1,-1,-1,-1,0.5,-1,-1,-1,-1,-1,-1,-0.5,0,-1,-1,-1,-1,0,-1,-1,-1,0,-0.5,-1,-1,-1,-1,1,-0.5,-1,-1,-1,-1,1
outputCount=235
weightIndex=0,141235,261835
weights=##0
##double#261835
   -0.8625626082,-0.4533932016,-4.3586050261,-0.1614629341,-6.4772618283,-9.9976007193,-0.144173606,0.0713438431,0.4193051888,0.063752912,0.7168257889,0.178907618,-1.0042285145,0.5390718982,0.6478259016,-5.3512394397,-0.1285243319,-0.4939131858,-0.7805887121,-1.0878693704,-0.7880097364,0.8682907041,0.3024071896,-0.4145228944,-0.5737787812,-1.1119321503,0.5125551144,0.6722670169,0.970214946,-0.9036419888,-9.3155663765,0.1729443448,-0.9664115651,0.903198594,-0.2879793855,0.5379056814,0.5447024737,-0.7214873583,-0.2350743103,-10.3266755344,0.3667276769,-0.2851473435,-0.2361172106,-9.0030668873,-0.8167302487,-0.9398448158,0.8558908539,-0.0999296197,0.9289765007,0.0218363059,-0.9187544531,0.5495325169,0.3659839306,-0.9656680772,-0.0990456742,-0.3633835133,0.1528875912,0.1439579804,-2.6182530274,0.3860756754,0.4413878138,0.0350082877,0.57565763,-7.8234645033,0.7909630852,-0.7976503987,-2.0830656084,-0.0274524226,-0.6092734122,-0.1544911114,-0.5309646841,-0.0755204524,-0.4420095031,0.6008929674,-3.8699457696,0.0143715002,0.418619556,0.4307577582,-0.684121663,0.166592767,-0.8558649689,0.500088225,0.5877132961,-3.2743713296,-0.6046539497,0.885055431,0.8599633442,-0.1227686431,0.5142555818,0.2992095051,0.4949790979,-0.3459963458,-1.1659002656,0.1460564181,0.1923206507,-0.5596080739,-1.0444707464,-0.2243565486,-1.1048836163,-3.9495811332,-0.899742784,0.6241242859,0.6723799514,-0.2677881029,-3.1052228846,-1.7963210768,-5.1620508557,-0.1105093989,-0.4474980981,0.5094576505,-0.048492539,0.3518543493,-0.7641940713,0.2758172696,0.7826302357,0.5039636854,-0.7346852904,0.2217512216,-0.4108591149,-0.3449158561,0.5804379332,0.0967917808,0.483150051,-0.6699564394,0.2542710072,-0.1912603179,-0.9609094592,-0.1899836926,-0.6449807858,-6.2695482164,0.1966733194,-1.6114585383,-0.4916998619,0.6813807951,-6.4975004568,-0.8907027708,0.094222074,-0.6658674583,0.3707792589,0.3180570139,-7.3340907761,-1.3062270128,0.3107520743,-1.0503649956,0.1753493676,0.7599979427,0.2385011313,-0.423662094,-0.4557578661,-7.5427009675,-0.5971343492,0.5260392692,0.0508473034,0.5638260785,-0.6082217756,-0.207184715,-0.1728254255,0.0720107563,-6.8392092751,-1.0613886752,-7.4258570983,-0.8002610806,-0.763958829,0.385506992,-3.0510826215,0.0953854258,-0.5638776371,-0.534362937,-5.4153318751,0.7246960313,-1.0501588251,-0.8117688849,0.1907656997,-0.9461052695,0.8456332506,-1.4157167789,-0.2440938049,0.2310738606,-7.410390872,-0.2846532923,0.2296628587,-1.114038466,-0.3467968197,-10.838423614,0.769164964,0.9814408674,-0.023057467,-0.3625409377,-0.4984888794,0.048599243,-0.1182919202,-2.6486608652,0.8693061881,-0.1921554207,0.0551580045,-2.2946389199,0.1810411108,0.3043229132,0.2645030801,0.4681329026,0.7370259045,-0.4842452331,-0.0418918641,0.3103505518,-0.9715264449,-0.1415268499,0.5427775318,-0.5193669674,-1.8352067973,-2.8947437803,-1.7667408092,0.1726274724,-0.3427311527,-0.9469659325,-2.182584261,-3.1925040748,-0.5214153613,0.3336828805,-1.1862165622,0.1894621352,-0.5765216679,-0.2004730764,0.2718140881,-0.7568378193,0.1424540173,0.471746393,-0.6374623579,-0.5342632644,-3.6306396558,-0.0300159296,-0.8430256354,-0.5364866749,0.6573206472,-0.241920337,-1.1676755838,-0.3642337285,-0.3735317124,-0.4771745771,-9.7897949459,0.478148468,0.7036730385,-0.2150202767,-0.2591727837,-1.5033763245,-1.1921987154,0.248053659,0.7693323532,-0.6823290406,-0.0619640469,-1.0510311229,-0.7983282748,0.7979118488,-1.6626974913,0.0927569791,-0.4654537285,-1.7460168256,0.4294752874,0.6304454043,0.3170007246,0.0228867771,0.158784922,-0.6247359984,0.2196608875,0.0352237331,-0.5486560291,0.1138960368,0.8962532206,-0.8374238878,-0.6394769253,-0.8481956731,-10.4159362931,0.4886718662,-0.2073158713,-0.2811495155,-0.6929496463,-0.9243795889,-3.3424847056,-0.735581174,-0.2640401165,0.7012115243,0.1015761001,-2.0658897334,-2.7570142785,-0.9224421628,-0.7910123445,-9.7538958641,0.2673299549,0.6799711707,-0.5615087468,-0.6060949673,0.0179133851,-0.3688582809,-1.0343519011,-0.4620556456,-0.8618955564,0.5644224554,-0.7294405811,0.6835831733,0.9475830405,0.9680490128,0.1093228116,-7.0825723812,-0.2790809209,0.2553885946,0.674759551,0.6838014006,-0.8706385773,-0.1298620778,-0.479930586,-0.2714204596,-0.2652776479,0.6256869738,0.8049339591,-0.6246855781,0.1729373551,-0.6534517436,-0.9596979156,-0.5336418474,0.7915397045,-0.172313595,0.8998241595,-0.3030330735,-0.8434424226,0.5220761223,0.8475742222,-0.9104257784,-3.0571081286,-0.3595357811,0.6131368862,0.3607527309,-1.3322008841,0.8439996784,-0.5009778192,-0.1346766581,-7.1531245915,-0.2682849724,0.6693884219,0.3697895839,-0.992539723,-10.3055514695,-6.3726593458,-0.4163247684,-0.4555916234,0.4927636961,0.8498489751,0.4588991644,-1.001935608,-0.1584494004,-1.1094577844,-0.243167579,-0.0794560926,0.5864294631,-0.5697163945,-0.6878988873,-0.3493418362,0.5720496274,-0.5502138925,-0.640753201,-0.0775729551,-0.1690040953,-0.5235923856,-9.7150072781,-4.1237468156,-0.56606781,0.4324323311,0.1913615776,-0.3299882491,0.6337865717,0.6007109678,0.3660631151,-0.9505016356,1.3565083526,0.0989207552,0.2097262844,0.5001607028,-0.6648123172,-10.1261369665,0.413773633,-3.901548693,-0.2378384383,0.3169127162,-2.4587622882,-0.3973938246,0.2429687655,-0.2666925097,0.9373514481,0.8311874609,-0.7520442744,-1.8621017348,0.1132584604,0.8595060084,-3.7508836085,-0.2451330445,-0.4911449414,0.540022261,-0.0312864219,0.0421478479,-3.9236763299,-1.1026098995,-0.7034492996,0.0334448797,0.5631746233,-0.2699578829,0.7966243275,-0.7223661428,-0.456823216,0.2134793569,-0.7734526451,-0.7159574231,0.3298287201,-0.0891356205,-0.5961412293,0.9810553164,-0.2719528033,0.7049441806,0.7559468454,-6.5890403228,-10.1335568774,0.6642577979,0.5855604363,0.5052818199,0.5123420971,-0.5461962304,-1.3717436552,0.9204306589,0.6577067668,-1.4600547335,0.8254316492,-0.4026997161,-0.0812804799,-9.9987318456,0.1649696285,0.7510446562,-7.5545493974,-4.1217246757,-0.7018584048,0.5275980687,-0.1655290219,0.1519161837,0.5813508904,-0.5587661001,0.6016465811,-1.0369443113,-0.9957853098,0.1818118577,-1.264865336,-0.1779272011,-0.2124510256,0.9314880719,-0.2632219226,-0.8379374117,-0.4805112639,-4.0917240383,1.0188895662,0.8543625672,0.2423353679,0.8511172767,-9.1059270453,-0.5550377912,-0.3861200729,-0.3085329022,-1.4203604077,-1.547340237,-1.5752698726,0.0867622986,-1.2675632866,-0.8418324628,-0.30158986,0.0406045643,0.2742034811,0.4787980607,0.0693737076,0.5357477895,-0.2608832915,0.9327218209,-1.7837690635,0.6475557152,0.4666599554,-0.782306696,-0.3136551832,0.8850838144,0.0321351128,-0.000916306,-0.5354290021,-10.3387734355,-5.1480737311,0.0204428676,0.3489209439,0.7301785443,-0.7899068091,-0.7191416983,-0.1810502674,-0.9542386055,-0.4751826892,-0.4523474362,-0.6501444126,-0.9022420184,-1.1162619987,0.2170392204,0.2200589137,0.7526965629,-9.0424850217,-0.6754938745,-4.4352020609,0.4017808085,0.444321304,-0.7858937026,-0.8321524975,-0.5588889586,0.6380688144,0.7029148074,0.1338107217,-0.658567036,0.6651715762,0.6624355205,-10.0139190627,0.5742029314,-0.239354276,-0.9140301887,-0.9703647171,-1.1258705085,-0.9131277121,-1.6721117633,-0.948705887,0.6620095415,-0.1804482294,0.0717904117,0.0755516714,-6.8420825332,-10.9225539136,0.4752883984,0.1700562576,0.2792660713,0.4690723181,-0.4780415868,-0.7210424376,-0.1031603852,-0.2669033171,-0.4316853046,-0.7460467118,0.8536661967,-0.0802658589,0.1915785961,-0.135265172,0.4378136215,0.2097081635,0.5096069101,0.7838180732,0.4628331982,-0.9489490955,-2.0333798733,0.0454145257,-0.4860031043,0.9063620212,-1.8137762855,-0.1454082351,0.1143299715,-2.1641262144,-0.0052941996,0.937527186,-0.4237817718,0.7695317437,-9.7413522473,0.5176083093,0.5037815162,0.06793445,0.9114938159,0.3989671416,0.4811514895,0.8760588762,-3.6950633663,-0.9147959535,-0.7445876215,-0.1133686674,-2.925713087,0.645892204,0.273057554,0.6670001418,-0.7356489777,-0.0192984203,-0.8682622851,0.5803175012,-0.5962814815,0.1925923877,0.0221137098,-1.3844833979,-0.2489473313,-0.7837127097,-0.5481892407,-0.7904127411,0.1864369366,-0.3936707254,-4.3093853637,0.5959857787,0.3786455572,-0.1211136711,-0.2077640814,-0.6892476044,0.7237569144,-0.3087503144,0.2087280692,0.6793282231,-0.8551580153,0.8555710693,-0.809444545,-0.0214730557,-0.1511082753,0.9587483343,0.6109825578,0.233530978,0.1092094499,0.4555033193,0.1367401456,-0.9891080115,-0.7706004205,0.2703039194,0.0114576178,-0.5774536451,-0.0417510631,0.9351316364,-1.1857096086,-0.803896167,0.2042316875,-0.7867113724,-0.4174577732,0.0766650481,-0.3134984192,0.5643858192,0.6655779991,0.9263232951,0.2653635216,-0.2328300656,-0.8730479113,-2.4662271548,0.244977139,0.2953837624,0.8722698841,0.0741792862,-0.8550542839,-0.6396031158,0.7264292558,0.4978633599,-0.4004348531,-0.1734667651,-0.9086085546,0.4030792996,-0.8745435058,0.306784069,-0.8020538204,0.1540817312,-1.354889265,0.6971607815,0.1238276282,-0.1637587528,-0.654302365,-0.2241561955,-0.0756413122,-0.3177075682,0.7222909069,0.8284284305,-0.1758815989,0.2308730495,-0.663265496,0.9252849023,0.7818692441,-0.4250678484,0.1385891979,-0.4375573136,-0.3229152029,-0.7606901799,-0.4424900813,-0.0177851649,0.7754025204,0.8119912665,0.2847802969,-0.5851681723,-0.1968503272,0.4171502363,-0.7064605763,-0.795354668,-0.33559212,0.5443205602,0.115948718,-1.3026457798,-0.7190518764,0.4896028974,-0.3695196102,-0.5425451178,0.0527857539,-0.3640813459,-0.09041336,-0.7522278507,-0.2044904159,-0.1766938345,-0.1935955917,0.2861805838,-0.1446320165,0.4924740527,-0.3606592606,-0.4714270505,-0.6642683746,-0.1210188508,0.3716292325,0.6414421267,-1.7688757229,-0.8829110464,0.0018188571,0.9409455879,-0.4536140255,-0.2093429705,-0.2062631491,-2.9199174622,0.4641825674,-0.2380990264,-0.058019736,-1.0579829367,0.1141444371,-0.6334475751,-0.0649986491,-0.3842950224,0.6119061609,0.0962302007,-0.5844129432,0.6798915782,-0.7101602558,0.3452707039,0.9736276444,-0.8178852769,-0.798864133,0.7795700947,0.3469982242,-0.1601931302,-0.9509035431,0.7733209058,0.1775021581,0.3262847177,-0.9163353311,0.0228014011,-0.546984918,0.4379451353,0.4705100874,-0.0178298893,-0.7695348069,-0.4752946101,0.1507872152,0.6081469363,-0.4397617468,0.8465671448,0.6861917493,0.6275114689,-0.9019794377,0.5351243489,0.3407836392,-0.4296004766,0.5056924216,0.1266286168,0.1118365701,0.2946760779,-1.2525945806,-0.7589271226,-0.4994610148,-0.7737401557,0.5410295624,-0.586619119,-0.2014928501,0.8287404424,0.3203071131,0.4196831104,-1.279853808,0.2102178903,0.1940278646,-0.2079594522,-0.2679744104,-0.594490238,0.4198129451,0.6046066167,-1.2096333123,0.0684613335,0.953395889,-0.2786876311,-0.9767033018,-0.8308545861,0.4963780024,0.2708262662,-0.7084620108,-0.0191940974,0.327571904,0.4156895216,0.7411571689,0.053583535,-2.4226172652,-0.4228475541,0.3240537391,-0.4138609145,0.4655038679,-0.5532813196,0.6513992605,0.2246512067,-0.5259528806,-0.1671798991,-0.1974282489,0.5733409973,-0.0276137003,-0.723180086,-0.8628761123,0.0332885694,-0.1533022336,-0.69228575,-0.1130110857,1.8743625048,-0.8041438719,-0.3915647555,-0.5533196445,-1.9928812052,-0.3128027857,-0.6347574394,-1.2804570055,-0.029642735,-0.0923541142,0.3034198804,0.7977534888,-0.1725808644,0.419277307,-0.8530318308,0.3176317695,-0.586851037,0.3876423245,-0.8504021059,0.7556997038,-0.2726264383,-0.2133299463,0.6748242285,0.6372847557,0.591768546,0.9541913844,-10.2124804126,-0.5605555305,0.2421613638,-0.1106022477,0.9064778225,0.7555680101,-0.2646918321,0.6702183104,-0.1140311562,-1.9268481441,-0.8426473886,0.63894359,0.9104229535,-0.6148552534,-0.5472036116,-0.9248487112,-0.3774525042,0.4115360759,-0.3766399999,-0.0200105576,0.8854896002,0.6523055331,-0.0566624514,-0.9898655567,0.8361922802,-0.514088089,0.2504638259,0.2233278011,-0.9089572162,-0.7468548408,-0.5165928774,-0.2028350322,-0.5218112304,-0.4114126482,0.5171730919,-0.5520334833,-0.9217073444,-0.5101478465,-0.7983342156,0.4511191799,-0.7037428542,0.9262107328,-0.9455092105,-0.7242683551,-0.559937476,0.0225438622,-0.3314485069,0.0745006665,-0.9301480836,-0.0638940685,0.3337749004,0.6043098051,0.9574083394,-0.8708225061,0.3523864305,0.8756641286,0.6469593126,0.0038203233,0.9917817886,-0.2334681975,-0.9309184916,-0.1088698251,-0.0164606831,-0.696063758,0.407952039,-0.6543709777,0.7593345593,-0.3228799286,-0.2742762921,-0.8525267586,-0.8771931717,0.9667647279,-0.3233462225,0.0363997711,0.5416473311,-0.3344113029,-0.692438115,0.1134490209,0.8770051201,-0.4910166451,0.9805092647,0.2890020985,-0.5818777307,-0.2552731835,0.3191953642,-0.4381800923,-0.7646923859,-0.9960395186,0.9441360423,0.7127451246,-0.4409176002,-0.5342822741,-0.4674499097,-0.0721033965,-0.2757907422,0.524318223,-0.128234033,-0.6059502131,-0.8945219682,0.4222777715,0.6158070811,0.5665455887,0.1262010793,0.772698384,0.3443576245,-0.2649167803,-0.3219821331,0.6083053322,-0.3991435735,0.6523684041,-0.695055799,0.8974814604,0.4099225369,-0.7354676607,0.2928019525,0.7859141524,0.5521390049,0.0087356009,0.9328290845,-0.3775914788,-0.2339349527,0.4681522704,-0.9122767042,-2.1295296436,-0.6956188808,-0.4733322057,0.0631788422,0.0646534365,0.9317128605,0.876132441,0.8487342658,0.3863778632,-0.3301520412,-0.5068036809,0.1174148686,-0.7258574618,0.7168348357,0.5382303586,0.9635668378,0.2724567678,-0.1566038842,-0.8991323715,0.4863046664,0.8445768768,0.2992842553,-0.964496733,0.0691111007,0.7473660118,-0.2954975048,0.6901053971,-0.4783949586,0.119587971,-1.037742978,0.6507564047,0.418837016,0.3711817051,0.9093528021,-0.0330440134,0.3532592091,-0.9824648631,0.7869284831,-0.0386245254,0.9829957729,0.6441006017,0.646677052,-0.0618395544,-0.8653981654,-0.7460644421,0.0780006187,0.0104838021,-0.5689375902,-0.1848425483,-0.2243086659,0.2046025256,0.1715296462,-0.7725715261,0.3629380742,-0.6351683805,-0.1539858185,-0.5543005371,0.6500900887,-0.675727956,-0.7140966536,-0.4048067612,0.1804266386,0.2969571815,-0.4997542874,-0.5214513102,-0.4489567752,0.135381346,0.0687916838,-0.0237263426,0.8624681656,-1.1011387386,-0.3885103819,0.4776526373,-0.9119242321,-5.9319616425,-0.595210405,-0.7390141481,-0.8084976975,0.2711875303,0.7515997412,0.454051806,-0.6957840928,0.943024614,0.6933415343,-0.629379593,0.3881544584,-1.0312882128,-1.0568479733,0.2025248305,-0.5274163583,-0.5191991462,-0.5247403917,0.3325514298,-0.7273131598,-0.6220907618,-0.8587392116,-0.8566070212,-0.5004386447,-0.9369746112,0.9244996854,-0.1684899316,-0.5910970467,0.2607477934,0.7954294836,-0.1271193509,0.6217796893,0.4819221742,0.5729455124,-0.3573793192,0.5402658587,0.3816508998,-0.6377967014,0.6441350731,-0.9729975568,0.9821389974,-0.9700888223,-0.5608819198,-0.2014408701,-0.9635003859,0.1255102614,0.9041928429,0.0014363561,-0.9754524835,-1.7763259365,-0.2220944956,-0.6122657866,0.2808633483,-0.0611161634,0.6723420062,-0.7014612769,-0.8268761813,-1.1751292621,-0.011730392,0.3792043197,-3.0345724359,0.1425803752,-0.8086918254,-0.1839366544,0.4034060017,-1.3982827722,-0.8767850791,-0.5695606391,0.0089654499,-1.0155294658,-0.2266641967,-0.1487639913,-0.3679110059,-1.8630066991,-0.8318197897,-0.4112763881,-0.3241574633,0.4332405285,0.5541886111,0.8712079813,-2.8798138617,-0.9579103297,-0.8445440228,0.379881096,0.1799238352,0.853702635,-0.3114722614,0.4501119567,0.9073551497,-0.2413830331,-0.4180717352,-0.192583955,0.5126144814,0.1124071167,-0.7895760105,0.4592046355,0.7316898673,-0.6706781757,0.6410328403,0.3812582949,-0.2994733583,0.3742695287,0.8180944713,0.3741194769,-0.818896114,0.7646762028,-0.6793615554,-0.0444659798,-0.7673261452,-0.025218618,0.3649568017,-0.1525433671,0.0122871911,0.5376968522,-1.4432433361,0.4916562336,0.7728532246,-0.2114147905,0.6826433342,-0.2696547333,0.9860698317,-0.080482503,0.7571034211,-0.1737665187,-0.724461796,0.0524469785,-0.952973139,-0.4341634085,-0.4671062996,-2.0563400297,-0.3571900185,-0.4182048707,-0.6597262048,0.6838357733,-0.4672034325,0.1304878865,-0.9320024395,0.251589045,-0.6159065158,-0.7816843081,-0.3316386243,-0.4494619938,0.9512156424,-0.9148266166,-0.7628214187,-0.1161127454,0.3021549916,-1.3394335834,-0.6188478826,-0.7332883711,-0.2505819134,-0.9736138252,-0.3223882,0.7033836753,0.1304615697,0.0881818287,-0.0345425976,0.0911855917,-0.0543603424,-0.0439260305,-0.9401844131,0.4031332362,0.6496879982,-1.08368928,-0.1455748536,0.2639911139,0.8926701128,-0.0881918228,-0.8955032597,0.0619840738,0.6121589776,-0.7690283247,0.6204879119,0.2002081411,0.1379702179,-0.0553042861,0.3275678635,-0.0272480958,0.1885238356,0.9634763375,0.7008560088,0.1289397247,-1.384812469,0.5848599796,-0.462180944,-0.2065160485,-0.8100228642,0.7299517755,0.1723412341,0.3449545765,0.4423145866,-0.9162751973,-0.8341624958,-0.1448111647,-0.185530067,-0.735361873,-0.3220013073,-0.0603522414,0.8277830511,-0.2395956974,-0.2580254972,0.2710804393,-0.1782009549,-0.7778214579,-0.9334210633,0.4364041636,-0.2963222494,0.9155338798,0.1029988874,0.6710833664,-1.1245709269,-0.888791798,-0.0208514677,-0.4992283504,0.8371173598,-0.7950629188,-0.4278598988,0.8781404311,0.4646375887,0.0839311147,-0.9376216051,-0.0682755813,-0.4985831172,0.8873871377,-0.887228928,-0.3247077596,-0.4167678768,-0.373452273,0.708561941,-0.1928906741,-0.2136716992,-0.9549566613,-0.9931647687,0.1721600831,0.3034758505,0.4791551469,-0.6819795563,0.9099194531,0.7317381817,-0.3944689674,0.1227231405,-0.3408650177,0.2961528568,-1.0036883955,0.6489554398,0.9250557372,0.3090793017,0.2608231626,-0.4501095973,-0.043091255,0.3168484546,-0.4890681424,0.6401721201,0.1010736887,-0.9266874014,-0.0183516645,0.7023029545,-0.5501021671,0.4857351547,0.7883929961,0.9734460489,0.4505047315,1.0654699358,-0.312733463,-0.3892642542,-0.4529650068,0.7867043755,-0.1338802768,-0.7133491111,0.1714448941,0.7532573365,-0.1498057528,0.7836224703,-0.3109734082,-0.6646343433,0.9483577527,-0.5196509878,0.1933785244,0.3621151064,-0.3457722083,-1.432029663,-0.533397477,-0.2770686638,0.97150408,-0.5720513952,-0.833843832,0.6855038724,0.0111490473,0.0183943449,0.1295188446,0.5850346309,-0.8594077837,-0.9987534937,0.0730001121,-0.8712429034,0.3507299668,-0.723118499,-0.3816762565,0.2271708188,0.3780455631,-0.9802065729,-0.166266372,0.8286137388,0.5513193844,-0.2282019574,-0.260481537,-0.0516979325,-0.448147185,0.3462174547,0.9156684272,0.3465572144,-0.8983060164,0.4356570754,0.045140672,-0.9583113164,-0.8445789494,0.0010783856,0.7438023316,0.0787195289,0.0629906691,0.4100572048,-0.2734312481,-0.4499624293,0.4714043833,0.5337549367,-0.4220345413,-1.0547593368,0.1636456984,0.3978439411,0.3943342659,-0.1324989379,0.9608999227,-0.1702578333,-0.0048046978,-0.4764553569,0.069503765,0.4625153274,-0.3207592082,-0.1169399131,0.3378182386,-1.6138921001,0.2267120571,0.9345799046,-0.7998060712,-0.3815739171,-0.0112990135,0.6761185327,-0.039999692,-0.8813072295,0.1667621537,0.1302684552,-0.6657745274,0.5955113019,0.3228695698,0.4606106839,-0.2558212198,-0.5753606972,-0.704727715,-0.2901733958,-0.7661742336,-0.0959919389,-0.1459708227,0.4094596049,0.1523162099,0.4551071222,-0.7218278304,-0.2048459205,-0.6986350169,0.660425251,-0.7200910128,0.6208671366,0.8740542429,-0.3324471904,0.3615985663,-0.273590522,0.8218426208,-0.1047304697,-0.0309017039,-0.3457682122,0.7061273472,-0.4439260137,-0.7317371608,0.788564045,0.1001441547,0.5580449773,-1.9565497701,-0.9918192557,-0.9253498037,0.6614825464,-0.3415863893,0.6617991516,-0.6573963842,0.5606938173,0.4476218285,0.7755372554,-0.6552639418,-0.945572788,-0.5418959461,0.1927529851,0.662326172,-0.5666330639,0.0411525904,0.3754865662,-0.6257202842,-0.488606389,0.764009248,0.1590786717,0.3847121718,0.8492037632,-0.1783813703,-0.3515984865,0.0694401363,0.7026182148,-2.0258009269,-0.8732010989,0.0606556785,0.5126721606,0.3705887968,0.1143568166,0.6974009632,0.9037895795,-0.4329116689,0.225270244,0.4531424227,-0.8137443744,-0.9803998948,-0.4244828448,0.624176871,-0.2238754863,0.6482836788,0.2447572929,0.7700246211,-0.165098989,0.6988408676,-3.0348178509,0.6751185436,0.2869989415,-0.2099204524,0.8481510739,0.346224901,0.605363827,-0.8393585533,-0.0262774113,0.4320996739,0.5419859305,-0.2731038787,0.6774724311,-0.3717008232,0.8475869627,-0.5960179998,0.6375538848,-0.5942746509,-0.4159030978,-0.1250072052,-0.5206481158,0.252427512,0.8611279857,-0.4014608195,0.4511685011,0.9549414258,-0.8849616155,-0.675435717,0.3847608064,-0.8474234164,0.6411883826,-0.7081524341,0.3170162767,0.7070073765,-0.8785369001,-0.3524644739,-0.5506110417,-0.3547685622,0.0835734279,-0.6526961099,-0.8624144852,-0.931321251,-0.7977309334,0.8516025714,0.3317457715,-0.3752613487,0.8586821679,-0.50021671,-0.2026482588,-0.5593281425,-0.6663372531,-0.5595750035,0.4440625904,0.209434112,-0.1198137221,-0.3424644593,-0.6173974085,0.2938458341,0.1617989655,0.7214180731,-0.8222167015,0.7750262595,0.9044543552,-0.9132517628,-1.0386784217,-0.6789463267,1.0357577913,0.5594618566,0.2497407381,0.0812994267,0.3236603894,0.5297632591,-0.6144593625,0.8291842977,0.8345343027,-0.3764993092,-0.4013276038,0.7791451053,0.4733138004,0.4332515653,-0.695477511,-0.8550838373,-0.0218883557,0.748247394,-0.0774742205,-0.7598655419,0.8488696085,0.1620384206,-0.5561345801,0.1640260866,0.8764159414,-0.5139603518,-0.8083290457,0.5974929443,0.9426915045,-0.2508572716,-0.5868783724,0.9994759669,-0.1606604918,0.3803790011,0.1772902065,-0.6803676458,0.6868609819,0.4874406982,0.2347409494,0.6209672649,0.6496426945,0.6048796589,-0.6875209838,-0.251658483,-0.4602371088,-0.3766050518,-0.5016881475,-0.0704536304,-0.7799601751,0.7743598683,0.2672586447,0.5939683261,-0.7105875992,-1.438045008,0.4232135794,0.9204118755,-0.9346770331,-0.85861495,-0.3439331606,-0.7920419442,-2.6984734303,0.6782162119,-0.7250685814,-0.7121801111,-0.8604833335,-0.4406525491,-3.1271453829,-0.2056749632,0.7032396913,-0.4987799078,0.6656764034,-1.4062234679,-0.0576932528,-0.6301734069,0.6327573421,-0.197146622,0.1022036071,-0.5641445393,-0.0218948085,0.5937673916,-0.5942076085,0.8795039008,-0.2096138813,-0.621090354,0.1888458498,0.0306768813,0.5319898769,-0.8923840153,0.8126309188,0.1894349128,0.5442029439,-0.1036829298,0.5282193276,0.9867346056,-0.7221371114,0.2469829851,-0.3689735763,-0.9109736216,0.5094510461,-0.1625084875,0.2288198641,0.3869045707,0.4686203649,-0.5153901175,-0.2906519318,-0.147500701,0.5584163482,0.0250252492,-0.0413275974,-0.7712589002,-0.6122054447,0.4815585722,-0.7460323773,0.5338742895,-0.9265472666,-0.7226910477,0.1617078717,0.8422271591,-0.5547279633,-0.3723320876,-0.5556890833,-0.3043588816,0.4232662178,0.446334558,0.5851691123,0.3743148191,-0.9614987355,-0.9160270406,0.1195628616,-0.3436253906,-0.1579134585,-0.9108928531,-0.0530340016,-0.9644353817,0.7480709534,0.7859051529,0.8779279892,0.8133640874,0.7803912554,-0.9421304126,-0.4688832176,-0.141501148,0.2592831059,-0.2672429855,0.8265782675,0.624471277,-0.0054589611,0.4472893162,-0.9404458426,-0.5024069989,0.5070686064,0.0699804224,0.3687892936,0.1538947133,0.363097216,-0.6847154248,-0.5185687971,-0.9337617165,-0.0886978511,-0.802759333,0.4118208108,-0.6429934502,-0.8947841442,0.4693675887,-0.383600293,0.7464670156,0.1666403702,-0.3555561115,0.5346507704,0.1101817653,-0.9301351843,-0.5795269237,-0.2848672563,0.8312461312,0.3187404582,0.019340666,-0.6267683452,0.3462099422,0.9509102465,0.8933296848,-0.3945558257,0.9554323387,-0.8945336154,0.740386148,-0.0720549373,0.6703567699,-0.9624609159,0.3641056924,-0.1453793154,0.3392258026,-0.6258497979,0.9284046606,-0.2283923796,-0.7450533983,0.7378121485,0.3148635996,0.5434678812,-0.737994864,0.898527245,-0.277768744,-0.5291799638,-0.9948607937,0.473381318,0.4662339317,-0.8030070184,0.2331268431,0.6533673588,0.2488617841,0.1142429117,0.4441905571,-0.0591245115,-0.1876825194,0.4400147223,-0.1911006902,0.8090027053,-1.1919455889,-0.5888135828,-0.7224695273,-0.8003800322,0.7024082259,0.8889495411,0.357159585,-0.7743048174,-0.520425317,0.2874432167,0.302923022,-0.1201682739,0.7331320574,-0.8845018972,0.7351337682,-1.0436793542,-0.2428656422,0.4531392001,-0.015934714,-0.1394322917,-0.442022591,0.2621090331,-0.2572531883,-0.0724449921,0.1316311498,-0.9473825247,0.4512298982,0.5583693601,-0.2120367757,0.5568286557,0.2985243157,-0.5123646751,-0.2374652839,0.2510390661,-0.5314944593,-0.5771940539,0.3233425014,0.0076616794,0.0064646865,0.3403900485,0.9388600674,-0.6137275782,0.1818448383,-0.4922079228,-0.6749320534,-0.4877239884,-0.7737372267,-0.1828064463,0.2358530665,0.7301012775,-0.5650510073,-0.5072985288,-0.9866173552,-0.1275368342,-0.9620379062,0.3080389069,-0.2205353503,-0.6087651325,-0.8135372249,0.4212248287,-0.4242285135,-0.0312154614,0.5055130598,0.4306454371,2.7068435885,-0.4668696305,0.9111669876,-0.2553896039,-0.2036759806,0.8108669776,-0.4508398114,0.5495641692,1.1535583391,-0.1231579033,0.7153179335,0.5716765025,-0.9953678323,-0.4670469437,-0.0241351187,-0.1216182481,-0.2633259007,-0.6676049748,0.0444820346,0.8994889863,0.2764202324,-0.1395662874,-9.0454044379,0.8808941259,0.6073214275,-0.88750732,0.9873242228,0.6411054418,-0.9194356082,0.9880160102,0.1878064525,-0.1789227255,-0.3102436883,0.5859546299,-0.9548003477,0.3999913189,0.4135748355,-0.0177677727,0.9303149,0.8214244666,0.0044307052,-0.0526337241,0.328567048,-0.3475051621,-0.0551354616,-0.6777427451,-0.8554711469,-0.7102168419,0.5674495263,-0.192514592,0.8672548689,-0.36418996,0.3730295454,-0.9015150533,-0.6981080482,-7.4093272654,-0.003714823,0.4529778066,-0.6179666066,-0.7593704689,0.2167107599,-0.3693697238,-0.3054418074,0.1432724136,-0.6520483531,0.0212127969,-3.2010333677,0.3994981565,-0.2302820209,0.4939574328,0.6169233617,-0.6344518017,-0.2072075944,0.1890643748,-0.6467421902,0.4432169723,-1.0088186175,-0.5118168032,0.0857932426,0.3323348276,-0.9792889776,-0.5966063364,0.2326353082,0.4826098482,0.8810211024,-0.6376601451,0.9963399004,0.2228624134,-0.4672837702,0.0765382107,-0.0534386232,0.921811083,0.8246036952,0.3981253363,0.885251783,-0.0583709627,0.9451746633,-0.7260716973,0.4052539699,0.7613622858,0.3699264274,-0.613665679,0.0409816554,-0.266994603,0.5617345309,-0.5692874075,0.3396396888,0.0280146699,0.2255756257,0.4503357442,-0.7820649143,-0.2123880406,-0.1911829593,-0.3508680329,0.1740756523,-0.7577158759,-0.497431364,-0.4588498164,0.3084310527,-0.9993010803,0.6629433113,0.407674724,0.5742690893,-2.8399476351,0.617251807,-0.6435238626,0.0365240804,-0.8170468931,1.0101563552,0.7561366059,-0.1233450584,-0.3444136746,-0.0720396327,0.1289806308,0.1305296752,0.9639904895,0.0354905374,0.1751256575,-0.0123342899,-0.5878784139,0.6660615455,0.8518255284,0.0587275876,0.3047891087,0.6173794136,0.143547625,0.1778844137,-0.2134860303,0.7140822772,0.9598286591,-0.2099699208,0.4497321994,0.7207833579,-0.6599227085,0.7903401836,-0.0620884826,-0.4878812182,0.9006013836,-0.8445516227,0.7985847313,-0.2997758428,-0.6203002267,-2.4257992074,0.3862271051,-0.248191729,-0.1125151811,0.6849505956,-0.6856923485,-0.2702585773,-0.041161708,0.3799679821,-0.7729806398,0.3905593671,0.3031702079,0.8740120029,-0.5260737653,0.5844910232,0.4334055401,0.0969819239,-0.3579701942,0.454200187,-0.9085579808,-0.0323625905,-0.6809015328,-0.4622614044,0.4273798932,-0.0171759603,0.9114012662,0.8113575204,0.5912722485,0.4734668447,-1.3027833877,-0.2280931427,1.1152683179,0.5127499324,-0.1611794899,0.6416467424,-0.6159973072,-0.6730635645,-0.2622586626,0.945391574,0.7749122751,-0.8204409906,-0.7280357752,0.328761924,-0.5422255533,-0.3884579927,-1.0468817563,0.6989499229,0.3337026394,-0.9074947008,-0.5772287011,-0.3205672234,-1.3439150862,-1.3109287612,0.536574198,0.9594502004,-0.4140925163,-0.6459829979,0.3425011973,0.6943212141,0.138653036,-0.1957466734,0.18889262,-0.8412974617,0.7160328773,-0.936771016,-0.6715577851,0.1739556662,0.1545059093,-0.9615231423,0.7326501525,-0.253924606,0.8232883706,0.2519661206,-0.4021092816,-0.1385656876
   -0.9698983028,0.8947651843,-0.5800217846,-0.8271468126,0.4598936431,-0.6610098459,-0.3305008746,-0.8647280373,0.5610553795,-0.51850309,-0.0546705333,-0.80311841,0.3791408313,0.8410136091,-0.4119625661,0.2365836155,0.235719054,0.1031967395,0.4004887928,0.8398706186,-0.4307956515,0.509034763,0.10683308,-0.2092017683,0.9237478328,-9.2212134526,-0.937986939,-0.2768218707,0.9510494813,-0.3382551882,-0.9414937238,0.6242863441,0.0129968955,-0.0732999348,-0.5249965017,-0.7099254963,0.2411312137,-0.2157233818,-1.5356206063,0.383498978,0.5668477842,-0.8987253291,-0.2427272145,0.2020528349,-0.1054619285,0.4775497598,-0.9266796763,-0.1074631299,-0.5876436902,0.2609442679,0.8768219221,0.557048151,0.3487324728,-0.6847978055,-0.2188507523,0.140077145,-2.1812251515,0.8326237959,-1.1217318628,0.0224387912,0.8609353693,0.1127126521,0.6275707274,0.5637506708,-0.2580426541,-1.3520866473,0.8160296575,0.5831584335,-0.5844524279,-0.9939817158,0.0391615649,0.2597137411,0.5381072218,-0.189347929,-0.1659683534,-0.3050011009,-0.0362586836,0.9115748265,-0.9827853157,-2.099245403,-0.4993456724,0.3195545807,-0.6245599898,-0.1872755908,0.2285696622,0.1979440341,-0.7696101394,0.4677840329,-0.7175395248,0.1926311785,0.3207574935,0.4965087508,-0.3591149631,-0.432152173,-0.914638403,-0.3364484257,-0.9861278974,-0.3088622183,-1.0174434841,-0.5163376892,-0.0431397768,-0.5285211095,-0.0463539509,-0.4031166942,0.0424887751,0.0774711875,-0.5364968424,0.9264434852,0.4431130725,0.3929913135,0.912698589,-0.6746560714,0.8731934957,-1.2654464154,0.2592539473,-0.3508393283,-0.3673199687,-1.5584406977,-0.9578278461,0.6181658776,-0.7834825394,-1.163911741,0.5069927544,-0.9957735233,-0.8188489876,0.2028023885,0.3428915756,0.7920886502,0.4024565699,-0.6495493857,-0.5840623385,-0.4347487272,0.9628741609,-0.8424603898,0.9636985995,0.2276201157,0.3080477335,0.8022993846,-0.5070084146,0.0319014156,-0.007491183,0.0382889197,0.229655631,0.1825108861,-0.2123650717,0.5783424946,0.5354703972,-0.5523348397,-0.6054625449,0.9325688272,-0.7662311315,-0.259105971,0.719804163,-0.8112588424,-0.5670037513,0.9559273979,0.3344031161,-0.988214206,-1.0102099076,0.2171251504,0.9372917344,-10.5208542693,-0.4007674968,-2.2472929724,-0.4857812247,0.7627094386,-0.7930934989,0.7005167716,2.6652768235,0.613773309,-0.2149096819,0.3790078648,0.3036708548,-0.080851477,0.2121919211,-0.0539703151,-0.9450220632,-0.3472442789,-0.2475977093,0.5566661041,-0.769991525,0.4592923506,-0.9440168322,-0.5140564886,-0.486420743,0.7008279627,0.287321144,-2.7483055993,0.6871208405,-0.732471588,0.6943978826,-0.5591009197,0.3972437301,-0.5171723761,-0.9818060748,-0.6596613743,-0.3721447704,-1.0106834166,0.4479414579,0.4459097385,0.147331667,-0.6028141139,0.0849511079,-0.3791470957,0.7532888245,-0.5257082309,0.8442356063,0.7990470261,-0.9155313495,0.0690673012,-1.0108709538,0.6197365787,-10.4004297891,0.8648423617,-0.9396643536,-0.9986217737,-0.5056532126,-6.7553408493,-0.967777101,0.6540078615,-0.8721390959,0.0953303065,-0.8978877979,0.7840495224,0.4529974226,-0.2674311374,-0.6837674471,-0.4737986479,-0.6064759855,-0.3439451367,-0.1302700755,-0.5820683745,-0.3519316779,-0.7874642928,-0.7711511966,-0.5415180681,-0.1281277434,-0.3680154767,0.6978362383,-0.0029900708,-0.920137255,-0.7613488951,-0.9830123161,0.5887473044,-0.7947728277,-0.2980504326,0.6672483685,0.0628263728,0.1491067582,-0.2669144248,-0.9375430796,-0.1659338056,-0.8583838221,-0.8985538115,0.7309139685,0.2903023487,0.6997812258,0.0474970209,0.2910784821,-0.1220281595,0.5475720553,0.2093961664,0.8333597623,0.1771124205,0.3156392137,-0.9443545241,0.451130992,0.9298146349,0.614338382,-0.2335856521,-0.6528298763,-0.936484603,-0.2275649977,0.163847252,0.0113905983,-0.8314138702,-0.5572607171,-0.2523557429,-1.0547775763,-0.1093862268,0.2259922427,-0.9466631276,-0.1809973437,-0.1924304931,-0.4587784875,-0.9770607138,0.7427178844,0.9347043206,0.2861946402,-0.4217092389,0.9589638934,-0.8997332292,0.2265631637,-0.6433839526,0.2877402256,0.0299945,0.4712457499,-0.9974465244,-0.2107585384,0.7032395314,0.3908966615,-0.3528062086,-0.1930417016,0.2947601015,0.0076693592,0.0537277084,0.3864419838,1.0037546045,-0.2402756081,-0.1685387204,0.0000562966,0.0364244266,-2.6497528109,-0.7794451461,0.3817271887,0.6998770941,-0.3833059085,0.5031758599,-0.6253234734,-0.8053907769,-0.6035388286,-0.906555058,0.3758644871,0.5482753326,0.4337407275,-0.8254399019,0.9307167593,0.1471383186,-0.8277947798,-0.6831598008,0.2715892296,-0.243450777,-0.6070083375,0.145003629,-0.3396604513,-0.6006982021,-0.1947133319,0.0198411533,-0.1773092005,-0.726455086,-0.0433968762,0.7119069874,0.3560521457,0.5957328157,0.1850051588,-0.8043121971,-0.0074674424,0.4375993973,0.0107429109,0.7183112804,0.8554774317,-0.5381937791,-0.4496349387,0.4551929244,-0.9655947864,-0.5221814018,-0.6531350682,-0.8545756704,-0.8371390644,-0.0409351816,-0.0013866234,0.7127478982,-0.010680505,0.0124876422,-0.5336853808,-0.1147059519,0.389147663,-1.5929119122,-0.851723971,0.5866367221,0.4857702281,0.6657893213,-0.6635509792,-0.2098510438,0.8997906376,-5.696062305,-1.0172901596,-0.3777252683,0.395517437,0.0019350364,0.7586812355,-0.9407648398,-0.0550168757,0.7363088613,-0.8608832716,-0.4046190021,-0.2966778041,0.7499297288,0.6829819025,-0.493804695,-0.4226705177,-0.7951122034,0.5964480695,0.9015871828,-0.6259867541,-3.6816853557,0.324886518,-0.5381153003,0.272787799,-10.6997011801,-1.1969436766,0.8399937551,-0.3463210074,-0.6546542329,-0.8304774136,0.1022134896,0.7143609214,-1.806331227,0.6990986863,-7.580212937,-0.5689935159,-0.8738928728,-0.3194515104,0.0347634453,0.3310548605,0.2152424091,-3.1231528891,-0.4774750726,-0.3791479285,-0.8174935166,-0.0417021941,0.657078261,1.1990805708,-0.5045470831,0.1416984316,-0.2950394856,-0.7103560336,-0.9780604195,-0.0352717663,-0.5927029959,0.2489374173,0.5193594378,-0.9676648886,-0.6158641057,-2.6817025777,0.5746465966,-2.0496219547,-0.6040021059,-0.7272618935,0.799169913,0.6315699138,-0.4748960022,0.2441469771,0.3023624308,2.7352281016,-0.160128447,-0.9357547007,0.3573893955,-0.1932112724,-0.8941661448,-0.9899774357,0.2806301476,-0.1001399596,-0.4600213212,-0.5987250177,0.2075447689,0.0057312147,0.5765403211,-0.4431397238,-1.5498598827,-7.68458855,-0.2363222946,0.5201335851,-3.9614801698,0.5134814087,-1.2590977236,-0.5711444775,-0.0243924242,-0.3404631327,0.9026590217,0.506804768,-0.5549219183,0.0990430773,0.1736184159,0.0432120521,0.4267090431,-0.742043921,-1.0152328153,-3.2253040466,0.0302844837,0.0464430255,-0.0007795343,-0.8215189918,-0.394953724,0.792583455,0.5103026247,4.3304125314,0.2856373468,0.5675496909,0.7354784153,-0.1526124619,2.6310841986,-0.707799832,0.5014326263,0.0897234093,6.5901996525,-0.3446329513,-0.3720717164,0.7963653194,0.0378857425,0.2002462155,0.1293939907,-0.6939553247,0.7706081274,-0.1297638565,-0.9386535533,-0.2196836443,-0.7550639927,0.6671620567,-0.7604035234,-0.4913510732,0.0540767363,0.468404115,0.7610616658,-7.4624114848,-0.6007092948,-6.3088104408,0.5195503693,4.1433466491,-0.2231166229,-0.0134632714,0.5970585306,0.5512817567,-0.6172992694,0.2196250901,-3.3354122749,-1.2831628022,-0.5052247917,-0.1226996299,-0.0825232204,0.1164211266,-0.0551112432,0.5835414928,-0.453762091,-0.0766473722,4.4054640436,-0.9498107147,-0.8391430223,0.0203400242,-0.2734272085,-2.0134627638,-0.6948873044,-0.4947102928,0.0619950575,-0.7406586171,1.013436736,0.1103356867,-0.155245059,0.4647592009,-9.8691215927,-0.8135181761,0.6990321018,-0.5184134405,0.258160053,0.50270754,-0.5419079903,-0.0940437776,-9.7913309537,0.1941719942,-0.485125708,0.2545604599,-1.1767193252,-0.1569277517,0.4625133095,-0.2281130708,-0.8464976463,-1.4792535036,-0.2595507922,-0.4407124199,-1.3203311345,0.4707687932,-0.9364649276,-0.1290638794,0.9973973802,-0.8277457946,0.1102794688,-0.3396379192,0.2876329593,-0.166947815,4.1700182922,0.1755809099,0.5691502818,-0.2399412825,0.9904736844,0.649078207,0.8999582398,0.1371938175,0.7084318526,-2.4422814746,-2.2319606024,-9.2147510759,0.7985272631,0.1806841072,0.0994882387,0.7703942313,0.3027928545,-2.4464549461,-6.0412690872,-0.4202117967,0.1616714528,-2.3783717843,-0.0405407477,0.5791390399,-0.6323093688,0.5979213804,-0.9004925859,3.486789588,-0.9031569578,-0.6909520161,0.7501123625,-0.0074267467,-0.0089725566,-0.6020557502,1.2808555806,-0.2161592824,-6.6099059778,-0.4511177657,0.7476083065,0.5700865862,0.3005866924,-3.0405069096,0.5333364029,0.6736350583,0.0549321495,-0.5788850788,-0.2810561035,-2.4083196606,-0.335196299,-1.0424870499,0.2892690838,10.4223159562,0.1553644824,1.1231993066,-0.1875964143,0.6668279949,-0.8559971126,0.285435245,-0.9510749248,-4.2909702435,0.6556791194,-6.4869893242,-0.9426253431,-0.8619479319,0.3134144406,0.1212223157,0.1550606862,-0.3187806462,0.2767018722,-1.9688545462,0.6832677979,-10.0052698958,0.471145917,0.389172691,0.2080650073,0.375355276,0.0245379462,-0.7838744766,0.3272933138,-0.9715507814,0.9485613481,0.837959461,-0.2615859995,0.8450644285,0.3197521322,-1.1140531297,0.2333617158,-1.5602433129,-0.1267499168,-0.7624142752,-0.787679686,0.7304335392,-0.694073137,-0.3539785009,0.1865708158,-0.8592613464,-3.4607826575,-0.8530234238,0.4532598657,-0.3893858643,-0.5974686533,-1.1721106351,1.1281088437,-0.8682696993,-0.3330562315,5.9539649331,-0.5033136831,-1.7851992417,-0.9418832568,-0.9654910489,0.8053100001,0.1456911617,-0.4982676401,-0.9305889247,-1.8417404634,3.0582919136,0.065676404,-1.8227841001,0.1888299316,0.1869204838,0.2694362621,-0.1692108633,0.090712779,0.261522146,-0.3584454793,-0.6037604717,-0.2711916651,4.540372597,0.0243981233,0.9026959672,0.359640287,0.6003744218,-0.9921459563,-1.4864195448,-0.7257577338,0.0170520171,-0.7414361409,-10.5177333641,-0.8686769713,-2.4400642181,0.5881263702,0.5573456022,-0.0724764716,-6.1171024501,-0.7525212038,-1.1837029768,-0.5188742974,0.6303451192,0.7622667409,-0.4626772611,-0.8762197718,-0.577608099,-0.7209270914,0.3331960226,0.7788198851,-2.4141667528,-0.0815706881,-0.4951734682,-0.7464067312,0.0944509835,-1.0980190136,0.5496297748,0.115527878,0.6020801204,-0.1088436913,-2.791047462,-0.5640701862,-0.2717883746,-0.4031327897,-0.6896015177,0.2528804054,-1.2878205496,-0.8327460745,7.2661117659,-3.953785086,-1.2362390233,0.9143582979,-0.27938232,0.7282645246,-0.1682962022,-1.1038178308,0.1088471929,-0.8764552605,2.6306887216,-0.1546077915,0.3732740712,-9.150687432,0.5188101031,0.18545885,-0.172586834,0.3391912084,0.7146933469,-0.7296739165,-0.6634352329,-0.9707530337,-0.1092915448,-0.6039587345,-0.8301109596,0.1165631947,-1.2547188599,0.1285031091,0.010909047,0.6674342352,0.2656711636,-0.2388387762,5.111706192,0.0169713152,-0.9331235242,-1.2547343158,-0.003081411,0.8291320803,-10.589924376,-2.6009963,-0.2336224015,-0.9886744615,-0.2059109389,0.8777279779,-1.5159855816,-1.1723764548,0.1052247326,0.3902012321,0.7873118521,-2.1092858975,0.0839099771,0.0565229893,-0.2386336214,-4.9333591153,0.6500013195,0.0154111984,-1.791100746,-0.5032269416,-0.1613278803,0.7059111597,0.9516509014,-0.5050206524,-0.2258965077,0.1993387862,0.3151164052,-2.8922299492,-6.4336659579,-5.2191082411,-1.5830510436,0.4948030634,-0.978634226,0.3222656823,-0.1006697411,0.2185674821,0.2607671584,0.0905434257,-1.7253081533,0.2925040348,-0.120049848,0.9481465101,0.7734496261,-0.5693215451,-6.3762007545,4.2251442404,0.1198144282,-0.8506144346,-0.80852123,0.4068636515,0.0057938942,0.751907315,-1.2030931342,0.1673414861,0.5016870416,-3.5125840241,0.1048357002,0.3140027089,-0.3590833079,0.919567586,0.5865527938,0.7997119586,0.3857367756,-1.5967479377,0.3868613164,-0.2218248113,0.9874444291,0.2190020007,0.0945076742,-0.3937039613,0.7109491191,-2.0427394542,1.2771942364,-0.0566502052,-0.9641655063,-2.2767337577,0.1920456114,1.6069420304,0.5589104151,-0.3308052115,-0.1535157953,0.5489554636,0.1513303307,0.567011502,0.2992974108,-0.0275268697,0.0731824693,0.1145268768,-0.3624543758,-0.9708885711,-0.2999991473,-2.9291203891,0.5281338409,-2.0446182332,-0.4169781517,-10.3753444013,2.9099424953,0.5989909437,-2.7953579628,-0.7536288773,-0.7097015001,0.0874210052,-0.5398868255,-0.3299517324,-0.1930934558,0.5436791111,-0.4769755567,-1.4526231963,0.6648927378,-0.7953384766,-0.8870513098,-1.0546555879,0.5855448973,0.4628171935,-0.1608995522,0.8405414004,0.7861335194,0.0495870573,0.710517177,0.9110748389,-3.0202342128,0.1680418795,-0.2676444037,0.6652304814,0.495751679,-0.0883504165,-0.9029254853,-0.3518883622,-1.2004912324,-10.6080410373,-4.0368859803,0.6593595738,-0.2424564973,0.3357461111,-0.0231683353,0.167334198,-10.5649044689,-0.319186654,-0.4635229384,-0.7415047006,-0.7552655313,0.591428312,0.7524014061,0.9446878846,-0.1806697162,-0.3599146154,0.9863980842,0.1817344247,-0.9895247845,-1.2517840201,-0.4596583326,-0.7778996847,0.7162752931,-2.0369123058,0.7995710141,0.1521968155,0.8005383394,0.4859300955,0.6454380034,0.5846998083,-0.8332587177,0.6738483407,-0.2455792563,0.5594652452,-1.0074851835,-0.882930989,0.2040713781,0.8868554052,-0.4028946288,-0.1919473254,0.7455918104,-0.6461876164,-0.1773984648,0.3502652905,0.021030058,-8.9298596305,-0.0505549893,-0.0692997621,0.5242650214,0.8948162082,0.8067358542,-0.0679119336,0.5967544284,-0.6383693055,-1.3359711464,-2.1715881051,-1.5557116848,-0.0597946618,0.8538099367,-1.0686042763,-2.1640032969,-0.1502444268,0.072399122,0.434364399,-0.8335882493,0.7806979168,0.4864225206,-1.1824746638,0.0315583673,-0.6031408354,-0.3487531722,-0.306788978,-2.9747004951,0.2323074386,0.9209448301,0.178211976,0.5070140426,-0.9354552691,0.7080663509,0.2572064261,-2.8645286776,-0.9466838604,-0.2062547518,-0.7035269344,0.2084403492,0.0583840688,-0.8086469975,0.8753341086,0.1171901104,0.7593657129,0.1925054629,0.8678744754,0.1460375195,-0.3661217316,-0.5184202119,-3.1592952601,0.6462990323,-0.4793521451,-0.6261465838,0.3063535645,-0.5587124655,-0.7786581395,0.8665033086,0.6891463526,-0.5450268221,-0.2145133797,-0.7263116768,-0.4408042809,0.8992378238,-0.8021893173,-0.2435794726,-4.7344591193,-0.8721379052,0.7039765236,-0.6864376946,-0.1301951355,-5.6140828308,-0.1617848489,0.3869914445,0.0879176069,-3.9405947967,-0.4654870827,-0.0025726026,-0.4165748402,-2.0384140892,0.8785472037,-0.3791675222,0.1880723824,0.980177811,-0.1320789086,-0.8373367751,0.3530992491,-1.6980582944,0.1543252965,0.4436001956,-1.5681085995,-0.0387409397,-0.3485518089,-0.768090523,0.8476538689,-0.443378831,0.4156735234,0.9379478166,-4.0698129093,-4.0691237959,0.8964361504,-0.2536456115,-0.6517247822,-0.0373715821,1.0732666052,-1.0564932508,0.8832154652,-0.6462035322,0.1911519828,-0.9566000464,-0.5017882324,0.8020594803,0.0801177448,-0.1597492316,-0.944093269,-0.6328862278,0.8172342813,-0.9298284278,0.5463518771,-2.3220828089,-0.5548192304,0.3857308767,0.2956089196,-1.236841976,0.343021327,-0.3083105134,-6.734150295,-0.4023071504,0.5140029175,0.6861209614,-0.6903060693,-0.5758984537,0.3802637996,-0.4297568126,-0.610598594,-0.4549455779,0.2979001156,-0.0377406258,0.4800541476,0.1508335979,0.3700897881,-0.7397283854,-4.1680945478,0.4146746519,-0.4843333,0.6710681534,0.9666068387,-0.072292517,0.0069708836,-3.0574109292,-5.8976614728,0.3440635241,-6.9156317037,-0.7173493195,-0.4929631856,0.9562067689,-0.5597620035,0.0516772557,0.7065523571,-2.3584355021,-0.4635054721,-0.2993437437,-1.9594663652,0.7722646636,0.553954098,0.6992084307,-0.6758879708,-1.6113783953,-0.2440425029,-0.4562189629,-0.7393292613,-1.3149697987,-1.9005670489,0.7651748163,-9.7645349297,-0.6112187448,-1.075034296,0.7338143997,0.446451768,0.4432432951,-0.2023407579,-1.2338251657,-0.4570273569,0.7135434414,-0.6843630266,0.3221667114,-0.5139747648,0.006506017,0.2773217157,-0.1911841189,-0.700408862,0.2539408115,-3.1183193297,-0.0823739529,0.2334702868,-0.5803904886,0.0736540225,0.246967571,-1.1574117451,-1.065647193,-0.8555222163,-2.7433990216,-0.9098350266,0.0619075945,0.6485869191,-0.0318582771,-0.7834009528,-0.7506601524,-0.8159280062,-0.5752037291,-0.3148486194,-0.9813254607,0.5571512256,0.0644365715,-0.0128981779,-0.0668152603,-0.4081052521,0.9702986381,-0.9870776951,-0.7737175621,0.7774305866,-10.5590428148,0.4296345491,-0.5306441092,-0.6644405969,-0.700080908,-10.7613363153,0.5178670953,-1.0237944224,0.0621551993,0.4867680213,0.4889580493,-0.7611808897,-0.0342353211,0.1644999983,0.9092018349,-1.1797705377,0.7454902541,0.4967992075,0.485243788,0.4158416858,-0.2835294917,0.8518642329,0.5701061949,0.8573155497,0.509890861,-2.4812222387,-0.4435341392,-0.5745275226,-1.1681533429,-0.8809386314,-0.2487926017,-0.552559509,0.1867787,-0.4473295241,-0.9671493089,0.7185600903,0.2108610512,-1.3783345673,0.7070831392,0.7787582707,-0.1575697172,-9.407070919,0.7853114448,-0.694893174,0.1888056537,0.5549121933,0.3445422099,0.3780709826,0.1984178724,-0.0274223878,-0.1159522756,-3.6836219587,0.3355270732,0.0154567818,0.4150318531,-7.5813157206,0.2576856952,-3.8476367447,-0.8942864739,0.9022047973,0.2830969116,-0.7365439236,-0.0815224204,-0.0353004728,-0.6348365528,0.5789585765,0.9693214666,-0.6125113443,0.1223099309,0.9252145787,-9.2605619117,0.5310483382,0.2759619981,0.1585722954,-0.9690764447,1.6942787919,0.6009476739,-0.479268002,-0.776442352,-0.9612576162,-0.4527969973,-1.0627813093,-0.9251121602,0.0523942441,-0.1359971389,0.4628739151,-0.7059047102,-7.6137348658,0.2079983427,-1.1329351449,-2.0598045355,-0.242134242,-0.6871704069,0.1610852358,-0.7816925931,-5.0467677927,-0.0645224835,-1.3473446813,-0.8401907092,-0.6738093157,-0.6856328964,-1.0469587384,-1.8587327164,-0.3699437769,-1.9840223747,-2.5738459723,-5.6680995674,-0.100121244,0.5196066853,-1.0054277013,-0.3714109003,0.5933235015,-6.1850643115,-0.4317474162,-0.1992890553,-1.7182638205,-0.8856774526,0.0706976937,0.2967480592,-0.1391067637,-1.1044397386,0.4898082254,0.8351771521,-0.6109751324,-0.2030445264,0.4792308759,0.0531642386,-1.183613991,-4.750812845,-0.119354085,-0.3723974018,0.8249393606,0.5184900555,0.6229990636,-10.7893687762,-0.5982221592,-0.1350043807,-6.8029730196,-0.5738409301,-2.7171180946,0.3791130455,-0.7122592199,0.373160899,-0.8608165811,0.2398932055,-1.4961904593,0.362740472,-0.031334037,-0.3218333552,-1.2825440996,-0.3716702198,-0.0850346756,-0.2807367555,0.3941392216,-0.5971896311,0.1481473801,-0.861698732,-5.3149206114,-3.0263445343,-1.1493806785,-0.9003781745,-1.0447930659,0.2518167248,0.6527803188,-1.7953205443,-0.3995996244,-0.1793454568,-6.2375685613,-3.4211727449,0.5700981687,-0.4318779256,0.9491645695,-1.0929260424,0.6880141547,0.6902364307,-0.9372985057,0.5382998902,-9.9930804348,-1.9701166206,-0.7700497741,-10.3329188244,-0.2586277444,-0.2843131173,-0.2070499959,0.6333095793,-0.8837553641,-0.9046423691,-0.7620963148,0.5537517713,-0.239197395,-0.4233693686,-0.8503812622,0.0940091751,-2.0057274713,0.2938051945,-0.6092801776,0.2786888913,0.6431554468,-0.2447431672,0.5578874777,0.2312486951,0.3342827075,-0.2065596837,-3.7347413327,-6.3118834232,-0.0656418177,-2.4540719425,-1.106991045,0.4142390569,0.2359366781,-0.2498149444,0.0126586056,-0.4035905627,0.2080378199,0.4829735504,-0.3465116969,-0.6502340036,-0.8849887663,-0.6442761269,-0.1943430814,-4.1850123146,0.1001618319,0.0159041861,-4.199879043,1.9057033539,-0.2383636899,-0.5666291173,1.0017323434,-0.1617678996,4.7762334609,-0.1440547759,-0.0149486391,0.6972458979,-0.0056614812,-0.8124547073,-2.6152263763,-0.2777347045,-1.0779061883,0.9631503154,-0.5821760641,0.7466436863,0.0569109943,0.839054181,-0.5608284364,0.0002969574,0.3202760112,-0.5049541242,-0.654298816,0.0638681819,0.5417409444,-0.8806515632,-0.4354543118,-0.0485702479,0.1841128825,0.575868331,0.7927962597,-0.8675871107,-4.8969742337,0.4406866423,-0.6892834674,-0.0795731214,0.158382168,-0.636313668,0.6618448051,-0.9305293844,-0.1999827978,0.2029190235,-0.6476915331,-2.4934736557,0.699986363,0.7410308066,-0.2869932722,-0.41718242,0.6476770419,-0.7805021314,-0.2160176075,-0.0874443749,-0.7743038033,-0.817865723,-1.5353230295,-1.0973005455,0.0061016955,-1.4407217931,0.7831230372,0.7131058213,-1.4571400207,0.4307369169,-0.8467011695,-0.6269046651,-2.5285995212,0.6090458567,-0.3958141012,0.7033600562,-0.5456888665,0.0093054051,-0.092399758,0.063641315,-0.8708489739,0.3900398497,-3.1500505936,0.1253831895,0.514068338,0.236888604,-0.3709290116,-0.443024236,-0.713045246,0.3033290468,0.4132542438,-2.4195865452,-1.4366627641,-0.0214461836,0.6397258688,-0.8901957023,-0.9509286466,-1.019770106,-0.2830213334,0.775964278,0.3839870573,-0.481437367,0.8554514585,-0.4172146027,-0.3987682417,-0.8657227003,-0.0411103397,0.4786866073,-2.4189878151,0.8065035078,-0.6420172241,-7.4717491633,-0.725890724,-0.6659780929,-0.01418859,0.7299002605,-1.1516370367,-0.9889081308,-0.7673200026,0.7717156634,0.3329432966,-0.700686461,-0.7105846061,-0.4639579013,-1.4208133825,-0.3886106313,-0.568309601,0.8051121473,-0.6995727971,-0.234851125,-0.9125504771,-0.0574163634,0.6923710227,-0.7322386087,-0.9139322726,-0.5114202402,-0.0357994261,0.0130519418,-0.9656389285,0.6867170988,-0.4932314003,0.0249472971,-0.9597570533,0.3283773892,-0.9309226833,-0.5506115085,-3.3417050669,-0.0206677394,0.6230440124,2.449703382,-0.2041873152,-0.4651349815,-2.6089715845,0.8151675272,0.9183272632,-0.4834072311,-0.8913266712,-0.3514756252,0.7903517364,-0.3687084698,-0.9921655789,-0.5085243237,-0.2939754869,-0.7199231056,-1.1462281172,0.8682021091,-0.4681975049,-0.4684485891,0.9275633972,-0.3978427515,-0.4560739268,0.1874630429,-0.4772976216,-0.7116336461,0.0163803355,-2.0477505586,0.3348804657,-0.6402303396,0.7605293316,0.3889389556,0.3719238147,0.9142710427,-0.7391395736,0.3199994433,-0.1369929432,-0.0354892056,-0.2149337273,-0.8156931694,-0.8633089473,-0.2923891734,-0.6570970102,-0.6330155599,-0.1161699463,-0.5372928859,-4.1549559692,-1.1027005091,0.580434196,0.0383962534,-0.6279506792,0.9351979774,0.8879721293,-0.4171158455,-0.7931121809,0.0760175452,-0.5937134769,0.487694264,0.2428250508,0.3042923213,-0.0996756673,-0.995348773,-0.4003888554,-0.5345841958,-0.8601243883,-0.7860611781,0.2402749901,-0.0197947924,0.8457582018,0.9434495764,-0.791076312,0.7979450662,0.7490146809,-0.5731305786,0.7775606197,-0.1017930327,0.2909941407,0.1989364307,-0.4407369759,-1.0351674331,-0.1263839052,0.1701818974,0.0285821474,-0.9057171191,-0.1308575259,-0.9146958259,-0.4969025652,0.1711960619,0.2754645816,0.9053180406,-0.4553903147,-0.166983896,0.0729072797,-0.1396508626,-0.9355707049,0.1172079166,-0.3505618187,-0.2655330986,-1.3206494015,0.2416362071,0.7173353253,-0.8839006551,-0.7816786239,0.0053468136,-0.391214978,0.2044270661,-0.7378687739,-0.6824056938,-0.581242311,-0.9434361396,-0.0276621506,0.2130216566,-0.2240389392,-0.1794810711,-0.3705073244,-0.8017009881,-0.456980082,0.2653477285,-0.403851192,-0.9236277661,-0.5211460237,-0.3341428048,-0.5103975393,0.1438343905,0.6122038184,0.6200759797,-0.3552938242,0.6954084604,-0.6805551596,0.5378261525,0.6506945025,-0.186880801,-0.5160118895,-0.4081169236,-0.8949789521,-0.0492382529,0.1435089155,0.7108909626,0.1822182659,0.9069358235,-0.8284695461,-0.863960662,0.4121118342,0.0774621829,0.8945437492,-1.1721399495,-0.053629313,0.1793922698,0.4054424139,0.6980279214,-0.8064400084,-0.4330000421,0.0491149311,0.4685073093,0.7160715299,-0.9065148961,-0.0009492771,0.0479472523,0.8927982745,-0.2721697037,0.9361040812,-0.5910319124,-0.1567411811,-0.3590680684,-1.4789687362,0.1747317547,0.2599614872,-0.3403174791,0.4616122029,-0.142688589,0.4457133659,-1.1723281326,0.3671002477,-0.6886321062,-0.6654335124,0.482820792,-0.5902351297,-1.8268776947,0.1475781512,-0.2112213216,0.2176854226,0.5147312082,0.0490120959,-0.5660897247,0.4283522827,0.8321577,0.1660646894,-0.6247730593,0.3907183678,0.5648657239,-1.0661111709,-0.398952197,0.4225331287,-0.279460729,-0.9613609363,0.058217339,0.8700950342,-0.2851396266,-0.0886923416,0.4678218806,-0.7948648069,-0.7165200266,-0.5068697783,-0.0493196887,-0.4267270923,-0.9212567539,0.7207119064,0.41110948,-0.9683588263,-0.7348862688,-0.0537201753,-0.0650063283,-0.1597577266,0.722800883,0.5395318464,-0.6477684921,-0.6315729446,0.2461964651,0.2541851912,0.0557281518,0.0544844043,-0.1100275936,-0.6356170255,-0.6190613548,-0.8697989619,-0.2969715007,-1.3154393419,-1.8326800236,0.2408477611,-0.2020180141,-0.2604874278,-0.1247112997,0.9851290451,0.0011858712,-0.2398908053,-0.3590960446,0.0279674401,0.5484584529,0.2088402642,0.4252243099,-0.7532132682,0.1773849049,0.591986865,0.8848113935,0.5647711135,0.9636838845,-0.3875552252,0.8943431426,0.5611997975,-0.3716721566,-2.5713192051,0.4883160186,-0.9286233177,-1.25996521,0.0898667352,0.301238334,0.4128949279,0.1167315872,-0.4242341001,-0.619591592,0.1595645538,0.8561896468,0.5069580556,-0.7106929814,0.0186361717,-0.1935817747,-0.3941838729,-1.3252470277,-0.8665149531,-0.9646017574,0.0319738992,0.2778267043,-0.7815686425,0.2500879292,-0.2849726535,-0.0371985041,-0.5327161159,0.0823618986,0.1096264752,-0.9081130026,0.6590608196,0.9334671297,0.7436985547,0.2215453318,-0.891154309,0.4940635399,0.149882057,-0.976576842,0.1997354424,0.4486177343,-0.5055144069,-0.3644011732,0.3678534209,0.1404463922,0.6148499022,-0.1633575137,0.0786693945,0.0147045968,0.2144956529,0.7912988926,-0.3687953129,0.7384277887,-1.3093719735,0.6385173791,0.0032640619,-0.213121299,0.1402558937,0.8526906757,-0.8529495523,0.2110503262,0.6311166952,-0.1582782455,-0.7885722452,-0.0199694743,-0.2046434714,-1.0255471671,0.0743911759,-0.7004329071,-0.0461142624,-0.6128139791,0.4566253347,-0.7551957169,-0.6088151923,-0.2566564445,0.2488646947,-0.5595028566,0.5838454508,-0.4004995152,0.5545367758,0.4055551661,0.6835686788,0.2034144577,0.6584632549,-0.4226043348,0.4206258777,-0.6789057978,-0.2141970901,-0.2747704335,-0.2107054849,-0.1627283686,0.0017231084,0.3176836306,-0.3242178695,0.3699941555,-0.6663212395,-0.4298506491,0.1579796855,0.3038507758,-0.0958369729,-0.0556821317,0.0572499735,-0.7772656599,0.74300716,-0.5592317733,0.278804544,0.713479939,0.4061384895,0.2532865902,0.3633150559,-0.2180276673,-0.249784684,0.7589467759,-0.2162170693,-0.545795405,-0.6903649066,-0.930021019,0.5211694818,0.8582149837,-0.2276670753,-0.9237612111,0.8824959722,-0.1213659316,-0.5693333351,0.9473493537,0.2645518142,0.7019986679,-0.4840804814,0.1449532296,-0.38001871,0.6545978554,-1.2138377635,-0.7224096857,-0.2137347087,-0.5996532921,-0.363343145,0.7082657659,-0.8007473408,0.4061952333,0.9299120886,0.1620322555,-1.0207480849,-0.6021703181,0.2034960479,0.405921982,0.7970188832,-1.0466451858,-0.5797685393,0.5130549713,0.579518286,-0.4819073741,-0.3307300797,-0.621065206,0.4078689031,-0.696163602,0.2556605249,-0.5413738445,0.6632534986,0.3895467984,-1.6406353229,-0.3263707607,-0.6481762211,0.6102887337,-0.6718760686,0.6215234763,-0.9496866022,0.5525137286,0.9142189566,-1.4643281921,-0.3627357937,-0.2994474528,0.9784744071,0.7592947016,-0.565055977,-0.3985868511,-0.4858690062,0.8777281728,-0.803525977,-0.9435323086,0.4888122259,0.5393910238,-0.020323047,-0.4433303459,-0.3725738946,0.0867443024,-0.3707888371,0.3135862458,-0.1738351997,-0.453711729,-0.3727681839,0.3465753002,-0.0711111858,-0.2089063208,0.7004201357,0.7567318042,-1.0234754175,0.0990646463,-3.0157642128,0.4575496948,0.3601488152,-0.8964028912,-0.0718888389,-0.6825700591,-0.5608168418,-0.3725407474,0.7382539488,0.6015858825,0.8228117295,-0.4589016077,0.8643808052,-0.0472050364,-0.246056018,0.5009119508,-0.326998491,0.7619749038,-0.8234303459,0.3418633047,-0.1189115068,0.7261110044,0.1984202842,0.6906591147,-0.4523502977,0.4495575322,0.5780641909,0.5698769969,0.1921543563,-0.6393915836,0.4065490333,-0.6001810577,-0.4720513055,-0.6166328797,0.7159195395,0.7915979947,0.7192924312,0.1272862839,0.6113355177,-0.8823365117,0.6281592402,0.6060370459,0.8828010748,-1.1032989302,-0.5732812375,-0.2481547372,0.8651760433,0.4425842315,-0.7005244444,0.4491528196,0.6528385924
   -0.9725258243,0.6328240285,-0.3561391575,-0.516104313,-0.7407033781,0.5336922482,-1.0959495701,-0.2384838011,-0.0122992867,-0.6074122556,0.1803686535,-0.1505197253,-0.5365776424,-0.4508403714,-0.4415918418,0.9698696212,-0.0947743434,-0.7466906665,-0.4498480046,0.1362069342,0.8674641655,0.6488202255,0.2567009706,0.0922293259,0.0082785801,-0.3730924731,-0.0492999179,0.7327238196,-0.783460141,-0.1891775714,0.367449433,-0.8149471581,0.1858756608,0.2103173998,0.7680301153,-0.0112702849,-0.4774629579,0.1920695456,-0.2847388348,-0.6623477022,0.7151373027,-1.3196818687,-0.1100915575,-0.2488623836,-0.6675500226,-0.1655103255,0.768580069,0.8662036091,-0.3093837063,0.769874985,-0.3935317601,-0.1880485392,-0.6656765828,-0.6006728177,0.3927565628,0.0331104525,0.5047107574,0.1613643534,-1.0769560478,-0.6549895322,-0.5671126277,0.9573660974,0.7957952717,0.2270948378,0.1090024636,-0.8284548083,-0.011202267,0.1478746619,0.1735444004,-0.0255574298,-0.3597329075,-0.4020877251,0.9681488264,-0.0647648211,-0.77001067,-0.0443862508,0.2635269243,-0.6931144223,-0.1446340241,0.0651646668,-0.1644620604,0.5277447511,-0.5484930062,-0.3709594184,0.7173758722,-0.0173804702,0.6872012421,-0.711256777,0.8149880967,-0.4825712515,-0.4691395349,0.9531462084,-0.5757528446,-0.182945014,0.2630178952,-1.0751515463,0.9403264823,-0.6252582991,-1.0275237672,-0.5477360448,-0.1123004436,-0.2970524871,0.4223698733,-0.3149621335,0.3537139152,-1.1593514489,-0.6426735441,0.2288234298,-0.9334650265,-0.0918929951,0.5492093825,-0.9023977154,-5.4434747857,0.6247066693,0.5395468038,-0.3211053699,0.3359246198,-2.2420218335,0.7301923932,-0.9627628765,-0.5504540367,-0.9821963559,0.4112503557,0.5591807721,0.1241105854,-0.1981021491,0.664030261,0.5846548796,-0.696346216,-0.1536786363,-0.5808007485,0.3796484392,-0.2558880223,0.8186982377,0.3634088544,-0.6834672284,-1.3651134495,-0.7726380652,-0.7014746622,-0.1944794176,0.8451243982,-0.4166446327,0.2355246504,-0.3123724002,-0.5016868863,0.6847962921,0.3993989322,-0.9550137178,-0.3126698383,-0.7097092372,-0.1607430394,-0.787588596,-0.9762352341,0.1516630202,-0.2851303817,0.4631876784,-7.4034854324,-0.8423023774,0.0437510425,0.0039937174,-0.120892555,0.5492686322,-0.7616464501,-0.2683427438,-0.7669876868,-0.9767133037,-0.8836712564,0.110577429,-0.2668750846,0.5007902668,-0.9987531704,-0.5343449593,-0.4716104281,0.6716707613,-0.5742906287,-0.2493215987,-0.0050212756,-0.374032668,0.780596373,0.5155088384,0.1542484642,-0.1955114783,0.579929615,-0.6966235103,1.0363777527,0.6731791555,-0.7287569162,0.0011452302,-0.1879678493,0.5349744552,-6.2679124823,0.3553980971,0.578608369,-0.4217003934,-0.4307331436,-0.8468264386,0.0596240689,0.1328800918,-3.3051605865,-0.6783782176,-0.1212430476,0.212867701,0.538910351,0.6393658351,0.0286283803,-0.0348100381,0.702328024,0.0770400007,-0.4800738743,0.5841627785,-0.490443101,-0.5582061504,0.4530607063,0.1286397461,-0.4383478979,0.6321465495,0.727317029,-0.9888162869,-0.8656727109,-0.7613269495,0.3027862513,-1.1172540953,0.5451232062,-0.9740883572,0.6375744035,0.4643449322,0.7000216297,-0.8827399457,-0.0334502737,-0.0027189114,-0.2114335023,-0.0650605496,0.438487346,-0.6677054996,-0.878443208,0.4139516868,0.307267547,-0.0768751297,1.1546258703,-0.6659147345,-0.0032458969,-3.3127945892,0.1637977777,-0.9331816387,0.2282534232,0.0264873423,0.2885831507,-0.660725295,0.716740205,-0.6670630192,-0.7714389002,-0.595881188,-0.8849424408,-0.4915657655,0.3382936699,-0.9277368778,-0.4008805765,-0.0307406368,-0.4938790442,-1.00866894,0.7378555045,0.6380933408,0.7440981131,0.9091441636,0.9778672801,0.9248592989,-0.5682318607,0.95106062,-2.6636983878,-4.0060742968,1.0007879498,0.1321334255,-0.8834563656,0.214060188,0.152157039,-7.7331269467,-0.6113605902,-0.8087791466,-0.4640168351,0.2411810448,0.4459099402,-3.5250229001,0.8935423075,-1.3140583707,-0.028885728,-0.5081494689,-5.0890446342,0.4495687233,0.6166669926,-0.8421504347,-0.1407601016,0.1538236471,-3.7047670213,0.2299326779,-0.02268486,-0.2836128463,-0.6795992629,-0.4594280737,0.6577318622,-0.1357654448,0.3057073267,0.883042508,0.3402148175,0.765786354,0.4186742527,0.0239301566,0.2651077066,0.2854343191,0.4211424718,-4.0425081132,0.9537040471,-0.7220918446,0.7233936133,-4.2147639588,0.8530046988,0.5344413674,-1.823805473,-2.1772026974,-0.3025852038,-0.4605623067,0.1393484289,-0.1485705655,0.0832906534,-0.0211931823,0.176102221,0.070344354,0.065632713,-0.5010452726,0.0455933055,-1.6286305124,-0.8429304982,-0.7136317361,0.2002668097,-1.1953655639,-0.492115118,-0.4352383354,-0.1081689184,1.51906859,-0.5144811946,0.3416309706,0.8662276957,0.0470314752,-0.7851471276,-0.20923998,0.9150305764,0.6842096579,0.2684529875,0.1480759916,0.9666162433,-0.460976016,-0.7972774724,-0.6305206737,0.4178758325,0.5159946193,0.8308624798,-0.8384226548,-0.6485374721,-0.1126686042,-0.4066410005,0.269043752,0.5886691897,0.4265622018,0.8377440783,0.9319302677,0.7477155582,-0.9389943345,-0.6783402891,-0.2881767036,-6.7331634173,-0.7743628208,-0.4476851707,-0.2261978853,-0.036427463,-0.9063475107,-0.3318964032,-1.4678793465,-0.8299773764,-1.4269003108,0.1045662328,0.6700773256,0.4500496979,0.3330019521,-0.955351739,-0.1332635881,-0.5307519958,0.7610404349,-0.5590571844,-1.4283245851,-0.8701896538,0.210022828,0.0073001484,0.4727014735,0.7959914699,-4.2708220692,0.4822122233,-0.8873734316,0.1090098203,0.0708877076,0.1933690177,0.775973908,-0.0266084531,-0.3497912424,-0.8934469337,-0.8692773535,0.8244590893,-0.5581760497,-0.8733989046,-0.2660497589,-0.0855270272,0.3481747918,0.7588838842,-0.6964499466,0.4690542165,-0.0006071747,0.0573384383,0.9709199549,0.2389407296,-0.6113275621,1.0523321138,-0.455888688,-6.7099970023,-0.0038461412,0.3459677324,0.6694616484,0.9484742711,-0.4524229781,-0.3296728682,-0.428475861,0.1257818023,-0.0651632583,0.6968006109,-0.6169905228,0.4297759611,-0.3695907032,0.9257076778,-3.3755164911,0.9438281931,-0.198370073,0.1081970175,0.5864292096,-0.6960838102,-0.7848998857,-0.0876552793,-0.646161797,0.9515908189,-0.1320436262,0.2205234941,0.6934256739,-0.4819392277,0.2428620396,0.1955711551,-0.5530627327,-0.2702717838,-0.9243205515,0.4914582147,-0.5041540452,-0.515764141,-0.4663686677,-0.1644210921,-0.7537082244,-0.0521133262,0.4302760643,0.1575998983,-0.4715915828,-0.4097250382,-0.4899016216,0.2364434777,-0.6290523629,0.0015968546,0.5115393602,-0.1284321318,-0.6914895224,-3.6617325843,1.0716570254,-0.7221442435,0.943067193,0.0907891834,-0.3832796648,0.2358591413,0.0240661091,0.6674664597,0.6972755798,-0.2806141369,-0.3428348891,0.4940504558,-3.8815994391,-0.8258257893,0.8078356584,-0.4861728153,-0.3751819529,-0.2773466726,-0.9614423586,-0.5530165142,-0.7362735195,-0.1778663217,-0.5684185654,-0.9141179056,-0.2646982061,-0.998465792,-3.0099681936,0.3766085324,0.9432224356,-0.6919404207,-0.1361495726,0.4330551236,0.6944255856,-0.2142705554,-0.5720903078,0.6731702972,-0.2304531568,0.30692535,0.5663781214,0.7820323446,0.5305583086,-0.5193669368,-0.4984716688,0.4564736278,-0.0021286649,-0.2363261568,-0.9664135427,0.4548549548,-0.6760894808,-0.0944996598,0.389815775,-0.8356819017,-0.3483535699,0.2538940397,0.7774137485,-3.35491127,0.7422013875,0.6886999151,-0.4711352892,0.8084419358,0.743763684,0.8959798704,1.2679558846,0.1539201016,-0.6863950404,0.0411599852,0.8055071051,-0.2245788928,-1.2321180292,-4.9913644129,0.2091760589,-0.1934361193,-0.1105278357,0.9224387542,0.1247030154,0.191924435,-0.5393289298,0.128558538,-0.3013440344,0.1516882875,-0.1491250306,-0.4184821917,0.7497591572,0.542972427,-0.519555883,-0.915909883,0.4185136256,-0.6539413262,0.6677553123,0.9672018916,-0.2401801826,0.5533002735,0.0515349284,-0.1774222318,-2.1658458122,-0.9972820556,-0.74405228,0.1594108733,0.3460362881,-0.5718629768,0.4442400662,-1.1921594021,0.0089966506,0.9343577313,-0.9844682698,1.0136519894,0.1470820178,-0.9239677788,0.6321581748,-0.695467422,-0.3161043225,0.3563746152,0.763922759,0.0954536589,-0.5073769056,-0.0563456604,0.0311915498,0.0593505819,-0.3335268833,0.8170957165,-0.429061959,-0.0820141172,-0.2268207461,0.1172720612,0.1450822929,-0.2377951594,-0.1009670052,0.9259780039,-0.0913451706,-0.452534308,0.7012183666,-0.8120906132,-0.9740397041,-0.3962197637,0.6310974158,-1.9632761996,-0.1764628401,-0.6664574101,-0.6126084923,-0.7546356864,-0.7187334081,0.6914633433,0.2947930448,0.45233263,-1.3779618091,0.4977454897,0.9992302739,0.1564013763,0.7077413686,-2.5041984049,-2.3045176211,0.221261976,-0.4993954162,-9.1177503907,-0.2507579624,0.4222679989,-2.70510495,-0.7732630086,0.2684350396,0.3265400054,0.6015011591,0.5261908297,-0.3024191236,0.3049953723,-0.6217017671,0.4273847058,-0.3444347039,0.4425208554,-0.4889123311,0.7003992051,0.8823652402,1.1349265542,0.7402211144,-0.1327865855,0.8979857985,0.0707905332,-0.7891548709,0.6637901242,-0.6041894116,0.6019337265,0.0709834978,-0.673366526,-1.8090879906,-0.0395710502,0.4376473832,0.7898120698,0.5380834138,-0.4948678922,0.424679669,-0.2330517886,0.208068106,-0.3268590242,-0.9106707709,0.8363200396,-1.3415611826,0.7010698218,-0.2241469264,-0.1558979168,0.2209254479,-0.6535435792,0.9483310678,-0.1260448576,-0.8693788536,0.73600525,-0.8214983548,-0.2159222544,-0.2718110281,-0.801936514,-0.2191762697,0.774044213,-0.7211692133,0.119537386,0.7718196652,-0.8357948586,-0.2275711985,1.5037454574,-0.8156724041,-0.8226879466,1.1717493845,0.7024702562,0.3304269141,-0.7577752026,0.2556634865,-0.2134869373,-0.0532968336,0.4013533264,-0.1112556679,-0.9681000799,-0.7537458408,0.4605823525,-0.8385386654,-0.0987446957,-0.2356322977,0.3131135202,-0.7580796303,-0.3329383164,-0.6811653291,0.9984831368,-0.2367025698,0.6551339421,0.8597432118,1.0046822265,0.877267604,0.2461382979,0.7647932547,0.6129947497,-0.8864474963,-0.3998867255,-0.2007833988,0.1542972312,-0.1072523862,0.4877550712,-0.0287670812,0.8953129913,-0.2562082583,0.0096377106,0.3033881452,-0.7425231199,0.6879914844,0.9643358304,-0.4806941559,0.4098448532,-0.7662934633,-0.1131099077,0.3529211253,0.6835182225,0.830979811,0.244360581,-0.6747109536,0.5477368845,-0.9307464579,0.9743810674,-0.6400986435,0.1112655731,0.3411040207,-0.3577393395,0.8029631688,0.3425957186,0.1481869937,0.894226691,-0.7647595454,0.0934887369,0.4832067293,-0.0777450932,-0.5595598346,-0.3011305796,-0.5568926896,0.4524598928,-0.3435976567,-0.1241719726,-0.6435992712,0.4075301124,0.5749998221,-0.7317457874,0.0480276649,-0.7559168938,0.440984526,-0.8423672619,-0.5098215566,-0.7429452587,0.450832748,0.7993475491,-0.374999398,-0.9921839029,-0.4859698775,0.0283027077,-0.4993223176,0.074793248,0.8869564015,0.5302298968,0.4668652866,-0.9605464396,0.2294803452,0.3460133663,0.1233712001,-0.7743499553,-0.7035590036,-0.240797432,0.695272763,-0.5419958246,-0.4110101047,-0.8992601907,0.4447315888,0.3266271702,-0.2384419263,-0.9632266441,0.4839655952,-0.5532455607,0.0591419116,-0.7468787796,-0.564011586,0.9410186236,0.0320712238,-0.922045022,0.8965162894,-0.482083995,0.9696142897,0.4738481539,-0.0209621235,0.3433223091,-0.9496930552,-0.5539377252,0.6411014845,0.6438626307,0.180634117,-0.0513425665,0.7528987099,-0.2855348977,0.7787975267,0.8865303641,-0.3294614485,-0.7451349878,0.5659079493,0.5947611455,0.5881160709,-0.4165534438,-0.2433799723,-0.6896306453,-0.4342746952,-0.9740105077,-0.7282755679,-0.3653227247,-0.1860913931,-0.3546027965,-0.488971189,-0.6244158497,-0.6269704356,-0.110319006,-0.6591186908,-0.3216017599,0.9817941084,-0.930261373,-0.7098750107,0.2207076026,-0.0025657233,0.7486513123,-0.4526673594,0.9317927731,-0.0058236016,0.2768246373,-0.0497253087,-0.889370287,-0.8381127976,0.8838802738,-0.5627899711,0.2110441299,-0.848348502,0.6945073971,0.0773924133,0.9190020646,0.7302504156,-0.088614277,-0.8401724331,-0.0660020266,-0.2092524952,-0.9467507412,0.4178678262,0.4843854135,-0.2340648875,-0.7817385588,-0.7648245857,-0.8548214545,0.3174934566,-0.8066014046,-0.4179118257,-0.0961312789,-0.2328679375,0.1677805843,-0.6571133471,-0.2819137228,-0.6465616881,-1.0194255288,-0.9450327916,-0.3728348924,0.4808446375,-0.2242148261,-0.9138953837,0.3892187717,0.3073471062,0.9334224681,-0.8683129667,-0.4101419278,0.2480529109,-0.2293797313,-0.4886189217,-0.6837584728,-0.4618294976,-0.751317638,-0.7617604616,-0.7461607106,-0.1303878939,0.3359058142,-0.0040123026,0.2973130086,-0.486775704,0.0541493037,-0.9773336952,0.2704331981,0.0005543765,0.7704350088,0.1223189853,-1.4655385196,-0.1072987876,0.7621408255,0.7353865844,0.5562976853,-0.620547261,0.0728765916,0.7787078067,0.2696285302,0.3845511674,0.3884953211,-0.9726466993,-0.0804522806,0.8425099568,-0.1121505254,-0.5023307545,0.5374581432,-0.3967078406,0.0024864533,0.6865606895,-0.3010571823,-0.4329510873,0.7498095444,0.0712538409,0.1941168641,-0.5822272212,-0.4638631255,-0.1987311705,0.8575018423,-0.733380945,0.4709595626,-0.3531491244,-0.5488605898,0.6902558282,0.3611457774,0.9170935582,0.1371999834,-0.4545524905,0.2161007433,-0.5114073197,0.1691868556,0.9040074409,0.5071622014,-0.8989753174,-1.4043661421,0.3988490022,-0.7698578454,-0.5567513446,0.8892311076,0.354437463,0.9286352581,-0.8495315238,0.829428571,0.9870690643,0.7651183247,-0.2727450563,-0.7145577251,-0.4397625809,-0.2359339829,0.3113148493,0.3789863578,1.0200188804,-0.5025846376,-0.3902887042,-0.5372368456,0.59736159,0.1582741514,0.2959485811,0.5706070995,-0.2552520837,0.4419229912,-0.9065801577,-0.8221878365,0.166132695,-1.164324691,-0.8246505255,-0.8735934134,0.5947234448,0.378593451,0.0886301828,0.1860231482,-0.0945559189,0.7617756193,0.4183915655,-0.429638806,0.0753032122,0.1898662639,-0.4111180024,-0.184016243,1.0383344982,-0.119691237,-0.901758548,0.408859161,0.5851491902,-0.8006167238,-0.8499290153,0.212615793,0.2962394933,-0.7704156846,-0.9205762249,-0.5375211544,-0.030947332,0.242156701,0.7274917952,-0.8260862902,0.1633133589,0.8263049278,0.6289502423,-0.4878016452,-0.463419636,-0.8068785237,-0.5627236893,-0.0185124845,-0.122999752,-0.0961200303,-0.8518339709,0.9274904457,-0.7380309416,-0.7450069566,-0.3685127852,0.4438702274,0.5077785169,-0.1679489387,0.5612132416,1.0077402227,0.3995128304,0.9856378329,-0.0081937456,0.4400108891,0.5356578266,0.2006413339,-0.6289312377,0.4039563735,-0.7209538778,-0.7846773882,-0.6163131804,-0.6115795941,-0.8025814044,-0.7759515479,-0.3212854189,0.7537285295,-0.8960141948,0.1328463615,-0.7707363217,-0.3087592426,-0.5595213035,-0.6213965617,-0.5207454875,0.2469151326,-0.8665094469,-0.3205211865,0.174177416,0.0137680949,0.4032305998,0.8112097934,-0.3562066788,-1.196933032,0.3380673788,0.5343215604,-0.5505309872,-0.9577887973,0.3797012532,-0.343513116,0.1373126449,0.6434093793,-0.3914978683,0.4480103865,0.3291396193,0.9368855936,-0.6880150593,0.1509632898,0.4437326761,-0.5232368424,-0.8809535625,-0.5711976341,-0.2037356417,-0.9601148676,0.9449901312,-0.2902798677,-0.3227928542,-0.1506631846,-0.6732799489,-0.7486381037,0.2160549642,0.1345383734,-0.6168440343,0.6656966195,0.4360764207,-0.3575019199,-0.5012889451,-0.2103315938,-0.2179193834,0.119843326,-1.0361721243,-0.0161940323,0.362621661,-0.1529370779,-0.7336773376,0.6011840806,-0.6416330343,-0.4415097547,0.1009223283,-0.9016070908,-0.0532290225,0.6679425067,-0.0170761457,0.5669563215,-0.7887544331,-0.5161850898,-0.2715942677,0.3358460047,-0.0050066032,0.7976247974,-0.0007817846,-0.6005734875,-0.0523358504,0.4127525543,-0.2105977135,0.5673522436,0.2733270823,-0.9711941452,-0.4818778957,-0.9767050293,-0.8786324751,0.7722608949,0.6943707816,-0.5184780242,0.3746132948,0.3438656478,0.5004543516,-0.9710635679,0.6503096543,0.0564208283,0.8282802474,0.7048781726,0.2842978152,0.7643084552,-0.4320985847,0.1001378674,-0.5130640855,0.1894804597,-0.3276142792,0.6026718918,0.4615627595,0.1272346178,0.277761581,-0.7681508027,0.329209158,0.0543357926,-0.4852809984,0.4746397022,0.6854737021,-0.2003619455,-0.0756578113,-0.1330941605,0.0525193659,-0.3599522561,0.0820811612,0.2167343439,-0.5891637404,-0.8765113029,0.5474694354,-0.4133247725,0.0960806456,-0.3716298071,0.962129982,-0.2937930137,-0.5478212029,0.5624987532,1.0488066549,0.0229582866,0.3611509674,-0.3576616732,-0.3009546249,0.5119638462,-0.4008017907,0.5822244404,-0.7680257551,-0.7277797591,-0.316574428,-0.5685863461,-0.661591053,0.6173361785,0.2737495916,0.7391885604,0.2815921135,-0.3751526999,0.0838884986,-0.0949000827,0.7934062749,-0.1647125662,0.5770908784,0.9505136832,0.075193776,-0.5663270979,-0.3182189034,0.3484160608,-0.1577311565,-0.4192333699,-0.0061888311,0.6566656821,0.8120411678,-0.5251392826,0.1628373298,-0.0725096818,0.4485299194,-0.9664925532,-0.1885646346,-0.6420030094,0.6381621066,-0.9727981738,0.3362173363,-0.6377746735,0.3495161436,-0.7070444678,0.1730504093,0.6155570548,0.5581463658,-0.9176012756,0.0757213444,-0.4046776086,-0.8332984103,-0.6237914115,0.8860619404,0.9739779164,0.4237724047,0.1686436553,0.9838414178,-0.6089949116,0.099385474,-0.2207279558,-0.3932717891,0.5699083757,0.3455730724,-0.4444737616,-0.2617372004,0.7321043874,0.9305224911,0.3588054718,0.6952395811,0.8578324712,-0.5944387681,-0.2077188156,0.9503122601,0.4320970947,0.0495772621,0.6270646377,0.6036463023,-0.4067164662,-0.3817916025,0.8257156823,-0.2774936635,-0.4729870685,0.551487763,-0.7522636306,0.7665028948,0.9197935316,-0.0699310896,-0.3891171156,-0.1331777139,-0.3153573818,0.2492601689,0.8967710007,-0.8805571298,0.5385645889,-0.8543252877,-0.5381512204,-0.899024759,-0.3905767651,0.3869466366,-0.9894225786,0.4929436884,-0.3952542408,-0.8974979653,0.2530627424,0.6483834224,0.7942323893,0.1879041807,0.0013253304,0.5395368847,-0.1425195707,0.2884934886,1.0080594212,0.0179799411,-0.703054429,1.0089139103,-0.0084681365,1.0504665095,1.0394843565,0.4127085698,-0.4232544243,0.9353472084,-0.2787605087,-0.5222974256,-1.1129040131,0.2630804944,-0.4571652982,-0.6365682901,-0.6091162145,0.4351100149,-0.7491103477,-0.0581045298,0.7710822856,0.1963642522,-0.8924638699,0.7419744044,0.0764331045,-0.7706759815,-0.4172955865,-0.150332202,-0.6151955227,-0.550236035,-1.3929632343,0.5043559146,0.025803288,0.2506394255,0.5354733333,0.854253805,-0.954367513,-4.0300708663,-0.6627347225,0.0470920496,-0.20660234,-0.2932828329,0.5745353536,0.1583942031,0.5790608346,-1.0020819553,0.7745485975,0.4367082379,-0.1302743089,-0.4036992268,-0.3548471943,-0.3004208863,0.5670605735,0.4403731231,-0.8395038784,-1.001334251,0.5043834159,-1.2827705567,0.1976922934,-1.0881274409,0.2678419647,-0.3888085144,-0.5119450617,-0.9549003779,-0.2216958843,-0.3130391178,0.1116621651,0.7070346951,-0.0129210176,0.0973238808,-0.2411409061,0.0808394672,0.6940472728,0.8676486761,0.9031098439,0.8093565984,-1.5284428142,0.7724122583,-2.7236480815,-0.3741861874,0.5062558907,-0.133528246,-0.0197846906,0.6109323788,-0.0836256189,0.6876955644,0.6575259397,-0.8342234349,0.3872540979,-0.6254527944,-0.5960257769,0.6505915639,0.9963479976,-1.9569228384,-0.2304577149,-0.8283152879,0.7617370644,-0.891575976,-0.6086318627,-1.1903600647,0.9876843078,-0.9342111609,0.6705335882,0.6236158283,0.5491459384,-0.4333930429,0.0417423644,0.289074563,-0.3861255299,-1.0799807748,-0.1195900069,0.3037946797,0.6668809292,0.603508818,0.2695057275,0.3070068985,0.2903088755,-0.1176283164,0.2279485899,0.74840015,0.8554794438,0.8328087387,0.3567153761,0.5680428266,-0.0767487252,-3.031821127,0.0549133165,-0.7898057427,0.7431456168,-0.276062414,-0.5737698074,0.9602734081,-0.076080759,-0.0178277805,-0.681776912,0.4703387857,0.253601998,0.3956836606,0.6950653311,-0.6303474057,-0.8774163203,-0.3924285762,0.5446026406,-0.2817363449,-0.9463059351,-1.1315021038,-0.2279950515,0.0578260871,-0.6821853186,0.1625623046,0.5713738182,-0.83370003,-0.5686558021,0.0590827284,-0.9523500196,0.2519852371,-0.9408772913,-0.7594576596,0.277047786,-0.5643614666,0.8706496813,0.1148725176,0.0096323669,-0.6303928851,0.6266143199,0.3537115795,0.9080930456,-0.9954176982,-0.6539781467,-0.937903679,0.9662940617,-0.6554066634,0.2248630041,0.2723859087,-1.2589630782,0.8064302675,-0.5366449692,-0.1407023531,-0.37073399,0.547423192,-0.9444133466,-1.8782512345,-0.2947586536,-0.236126446,0.335129768,0.7503523163,0.2502607026,-0.3542464019,-1.0345951247,-0.0971622907,0.4771697389,-0.1220136083,0.4198083181,0.4456773414,-0.6345117292,-0.8430347276,-2.1393460619,0.4906629161,0.108277819,-0.3048655217,-0.0878633743,-1.412861352,-0.5036020974,0.8743452117,0.3589747577,1.0064236808,0.6362413976,0.9542248623,0.321497272,0.6327891894,-0.3932163054,0.5352302105,0.0303675063,-0.5732165304,0.8689586471,-0.4726292527,-0.1349396811,0.1837132608,-0.1417142039,-0.8692076805,-0.2897879278,0.8178894346,0.8154153426,-0.3980512211,0.1573155149,-0.171908349,-0.4503205216,-0.4563918877,0.6079529524,0.1772705286,0.2658302039,0.2891053577,-0.1580466314,0.0690629207,-0.1595882034,-0.9475774387,-0.3660155271,-0.3875789428,-0.815943691,-5.5470863638,0.412701821,0.1831907464,-0.4563611528,-0.8477250924,-0.739657912,0.5348634894,0.0012511614,-0.7537995781,-0.8356575284,0.1352184841,0.6458271725,0.491864599,0.8886145758,-0.5447851898,-0.22555716,0.196390461,-0.6612048908,0.3627026856,0.8085387493,0.5537403714,0.310924474,0.401776371,-0.3992558439,0.3308515755,-0.3947517832,0.7664184152,-0.5466081772,-1.1767023629,-0.9850489818,-0.9049298386,0.4902820232,0.5541178432,0.0827236195,0.1892254051,0.7219506369,0.4271842823,-0.7729899679,-2.0774947321,-0.0842959316,-2.9885535256,-0.0437675523,-1.4095438852,-0.4892855308,0.5752300393,-0.6266230551,-0.9820354013,-0.3932284708,-0.6081220414,-0.8668782891,-0.8973538877,0.7880117158,0.2740727203,-0.9259121407,0.1624157301,0.8149611494,0.1811639372,0.4190654953,0.9977352423,0.6397170033,-0.8613745584,-0.5341636656,-0.5617598034,-0.491631574,-0.5720851813,-0.0555121746,0.3421272429,-0.8750812361,0.9255081977,-0.0048016437,0.7746048952,0.1216492643,0.3429361454,0.704026279,0.8416822277,-0.7433725162,-0.5979437913,0.6406796169,0.6005152928,-0.6907498167,-0.7752165423,0.1668740432,0.6349436149,0.9520244147,-1.0995036976,-0.0311437836,-3.3244629764,-0.5162840804,0.0196330378,-0.3393895508,-0.1997749765,-0.3453539694,-0.1740788372,-0.0419377984,0.0921414195,0.3116761525,0.8055203837,-0.9528716997,0.2525145703,0.9414820896,0.0547113515,-0.1868140157,0.6281079625,0.6020053581,0.9421346798,0.2933293306,0.7814586398,-0.7001796716,-0.0756522544,0.803888329,0.1545038805,-0.1211025994,-0.7244761014,-0.8336045159,-0.5385909026,-0.2217397061,-0.4746707071,-0.8842259932,0.9023915609,-0.6999246036,0.3418143858,-0.8921063047,-0.9763607799,-0.8598275894,-0.6736795547,-0.7058160847,-0.6399329512,-0.4671615214,0.7853653913,-0.6748638843,-0.9333751669,-0.3394896111,-0.6436615394,0.2844660516,-0.3315706879,-0.7384238028,-0.5005653863,-0.0693121587,-0.6395618015,-0.1424632109,-0.425871407,-0.0748217441,-0.2772734104,-0.8879874158,0.7239314421,-0.8824322375,0.356886907,-0.8103313428,-0.3146904108,0.4158610859,-0.14300405,-1.1780524041,-0.4823411413,-0.6541235592,0.6796738117,-0.7633316775,0.745798969,0.8906992899,0.3323266407,-0.9854692774,-0.2855287388,-2.5298984694,0.73739587,0.7640620281,0.5542913379,-0.518425481,0.0282585746,0.8231446267,0.5780980675,-0.8342248742,-0.757540483,-0.1327346587,0.4736727282,0.6953812755,0.4835923629,-0.8624339209,0.3573669158,0.2047539542,0.9963038649,0.537318588,0.9970728796,-0.9750356218,0.5144136207,-0.6106295217,0.8021085872,-0.2568352691,-0.5522527164,0.9443087479,-0.1888714673,0.1021877888,-0.8515303282,0.1908852326,0.5978758559,0.3678427397,-0.0737034538,-0.8303796133,-0.3501228905,-3.0640920457,1.0873855664,-1.6360103918,-0.1220371437,-0.6645944726,0.193274399,-0.8132759551,-0.1536341656,0.1176591728,0.3439846912,0.0608309464,-0.6119915247,-0.6076907497,0.2231019303,0.6099279936,0.9090310799,-0.072905148,0.096208919,-0.6211927081,0.2538794617,-1.154791457,-0.4162880631,-0.8212848653,0.168626495,-1.039960352,-0.1764001219,0.4009862631,0.5655895036,-0.3961740695,-0.0611115843,-0.1592103197,-0.1667022078,0.8924844117,-0.8881163609,-0.6150404554,0.680968542,0.8784731081,-0.2159017037,0.4848374043,0.1216738581,-0.5648005191,0.2133582793,-0.7205295461,-0.18121006,-0.2606575572,-0.5325600815,0.2880835327,0.2614130461,-0.9087583469,-0.1993506369,0.0415242226,0.0487953099,-0.1117697182,0.8632967358,0.7910928504,-0.2499958871,0.0151627462,-0.6415149099,-0.0466361282,0.6577776689,-0.7527279293,-0.0038522566,-0.570616194,-0.2547440423,-0.07405833,0.7498214489,0.6611795522,-1.0113145469,-0.15767692,0.5427828461,-0.7416133638,-0.1085811734,-0.1314696258,0.844866572,-0.1350700628,-0.0546363897,-0.5007816056,-1.5164948456,-0.2985342282,-0.606053808,0.581977178,-0.7843472158,-0.8968496724,0.2337203838,-0.1468620454,-0.2619980019,-0.8177592573,-0.492984767,-1.1448283499,-0.9805354717,-0.6954989302,-1.1445010319,0.7547098574,-0.6450338951,0.6869267086,0.9526763028,-0.1768809507,-0.7757306653,-0.8517746905,0.2423539885,0.7480095229,0.5300029868,-0.9036082964,0.6708023464,-1.8214250388,0.1343011627,-0.3987204262,-0.6470102346,0.631470287,-0.9883858056,0.7452615407,0.8072544343,-0.0817663356,0.1337444645,0.9132893028,-0.977109602,0.895411014,-3.4561645352,-0.6566299886,0.6696137214,-0.2263106375,0.0091053662,-0.2232527495,-0.4141043614,0.2864004009,-0.5784515917,0.1071395514,-0.7633109385,0.134299054,-2.4481213593,0.0318031957,0.4876834942,-0.3225714018,0.5039160985,-0.105198893,0.4115064125,0.0972580237,0.0820309731,-1.0445116273,-0.0668082163,0.8264322543,-0.781500781,0.4003633503,0.1622815672,-0.9365823419,-0.0774801238,0.7698249071,0.0773930832,0.9669560751,-1.3007927668,-0.4392186299,0.5395752649,-0.5452959759,0.2502529585,0.4934709128,0.7417644339,-0.282540115,0.7277256368,-0.4761422321,-2.3522347859,-0.5155657226,-0.0094849802,0.5605052837,0.6767179975,0.1715585413,0.7734659261,0.7826895203,0.2764263228,0.1058169379,0.9183466231,0.7666171707,-0.3210483641,-1.2316311897,-0.8861215658,0.9557462978,0.9096747145,0.0819603966,-0.0530331696,-0.3123004289,0.9945012637,0.017901159,0.8841479618,-1.1062323714,0.8012085019,0.6260533941,-0.484565488,0.0372627073,0.7546501304,0.3882603866,-0.1874764524,-8.9287793756,-0.654598595,-0.7656193178,-0.5758144883,0.7808582532,0.0840263209,-0.8735637913,0.2914797362,-2.922077644,-0.1094230026,-0.835603834,-0.5853907627,-1.2311104988,-0.5461703326,0.8548625079,0.0863057306,0.21598335,-2.0031005025,0.9023765013,0.7131232677,-0.7765121084,-10.1632787215,-10.1094700017,-0.0834261413,0.9691535843,0.311172488,-0.3594508291,-9.7746723436,0.3384367384,0.1077860865,0.8825218329,-3.9635397875,-1.1579008121,0.5022474061,0.5677791967,-3.2884450288,0.2941602353,-1.965171288,0.4959398517,-0.1618892722,0.5892707026,-0.3933528624,0.2877847373,0.1304669921,1.0373150213,-0.5539596396,-2.8417464556,-0.3299749373,-1.8425497944,-1.0231404523,0.3775372018,-1.2250864867,-0.53399761,-0.8791248987,-0.0011373957,0.8366258527,-0.681034226,-0.0474490184,-0.9761076495,0.4679342838,-0.8974357207,-0.2265747154,-0.1147190407,-0.1649139639,0.302549895,-0.9860467707,0.3774239683,-0.3284302276,-0.1953271239,-0.1076861629,0.3221537398,-0.2363853313,-0.2222866073,0.3425083907,0.4929355333,-5.2728648737,0.9279404159,-0.7961942765,-0.3242488121,-3.7021936312,-0.7616177707,-0.2318593475,0.8568193182,-0.4447520524,-0.7041087388,-2.0068098774,-5.6999799292,0.0304470695,-2.0504056546,0.2809404921,-0.400077415,0.0975734329,-0.3263036999,-0.2481280199,0.4394720231,-0.1367528124,0.7541359117,0.9992260072,-0.7090023837,0.7406993256,-0.5571303923,-0.889273412,-0.9970218845,0.5570276965,0.2751335943,-2.6240759977,0.0351581513,-3.0345196484,-0.6216740877,0.6836534767,0.8482897601,-0.2140546982,-0.3625806182,-1.1224251135,-1.946061637,0.0007154873,0.5538598861,0.102826629,0.5702741887,-0.37422433,-0.9529028721,0.8319681758,-0.4193135335,-2.9295448127,0.6392303021,-0.5189777112
